-1.126114428043365479e-01,-9.171260893344879150e-02,-4.868404939770698547e-02,1.644023060798645020e-01,3.255287930369377136e-02,-1.083507314324378967e-01,-1.277218908071517944e-01,1.456795036792755127e-01,-8.909229934215545654e-02,3.798045590519905090e-02,1.590784192085266113e-01,1.391146481037139893e-01,1.100137457251548767e-01,-4.980546236038208008e-02,-1.934281885623931885e-01,1.464528292417526245e-01,8.715960383415222168e-02,2.881343290209770203e-02,5.071172863245010376e-02,-1.649448461830615997e-02,1.358047127723693848e-01,1.290221661329269409e-01,-1.153490226715803146e-02,6.201327219605445862e-02,-1.079812366515398026e-02,4.185991361737251282e-03,6.018875539302825928e-02,-6.706702709197998047e-02,-9.672761708498001099e-02,-4.686681181192398071e-02,1.368917971849441528e-01,-7.994475215673446655e-02,1.456844210624694824e-01,8.615597337484359741e-02,-7.779918145388364792e-03,1.021344289183616638e-01,4.379653185606002808e-02,-4.200387001037597656e-02,-1.401644945144653320e-01,5.704770982265472412e-02,-7.383555918931961060e-02,-1.205292940139770508e-01,-8.206219226121902466e-02,1.988993585109710693e-02,-1.158096548169851303e-02,-6.979343295097351074e-02,-5.310488492250442505e-02,-6.196867302060127258e-02,1.359601467847824097e-01,9.808113425970077515e-02,-2.994767390191555023e-02,-1.273713558912277222e-01,-1.087365150451660156e-01,-5.860208347439765930e-02,-1.843600273132324219e-01,-6.768915802240371704e-03,-7.100021839141845703e-02,1.553296297788619995e-01,8.910746872425079346e-02,-4.065080080181360245e-03,-4.866602271795272827e-02,-1.934734731912612915e-02,1.351372748613357544e-01,-1.092643961310386658e-01,-2.932802215218544006e-02,-1.907880231738090515e-02,-1.156219765543937683e-01,-1.298197954893112183e-01,2.210830152034759521e-02,-3.013691119849681854e-02,6.346459686756134033e-02,-2.626987174153327942e-02,6.746105104684829712e-02,-1.640975475311279297e-02,9.662224352359771729e-02,-1.028940901160240173e-01,-1.724946349859237671e-01,-4.129256308078765869e-02,2.617163211107254028e-02,1.932816952466964722e-01,4.396936669945716858e-02,-2.820504596456885338e-03,-7.395456731319427490e-02,-3.695753216743469238e-02,-5.562284588813781738e-02,-1.476737260818481445e-01,-5.224343389272689819e-02,5.370914936065673828e-02,-9.383343905210494995e-02,-7.264914363622665405e-02,1.154457032680511475e-01,9.920338168740272522e-03,2.663310058414936066e-02,7.906360924243927002e-02,-4.328894137870520353e-04,-3.962853923439979553e-02,5.989737808704376221e-02,1.077610999345779419e-01,1.649461686611175537e-01,8.908411860466003418e-02,-6.413219124078750610e-02,-8.407473564147949219e-02,5.660369619727134705e-02,9.989878535270690918e-02,1.503704488277435303e-01,4.169605672359466553e-02,5.362328607589006424e-03,-9.542409330606460571e-02,-1.378521621227264404e-01,-1.251138597726821899e-01,-1.906854361295700073e-01,-4.809597041457891464e-03,-1.736347079277038574e-01,6.392661482095718384e-02,-1.626374274492263794e-01,1.499569416046142578e-01,1.923217624425888062e-01,-2.411221899092197418e-02,-1.571428030729293823e-01,-8.120128512382507324e-02,4.909729585051536560e-02,1.158010512590408325e-01,-1.034335941076278687e-01,-5.274695809930562973e-03,-1.789538376033306122e-02,-1.720009744167327881e-01,-5.623515695333480835e-02,1.542054414749145508e-01,-2.094943262636661530e-02
1.168404296040534973e-01,1.330539733171463013e-01,1.071048527956008911e-01,-1.311380565166473389e-01,1.248590722680091858e-01,-1.011751145124435425e-01,-8.598951250314712524e-02,2.029868541285395622e-03,-1.602230668067932129e-01,-9.545872360467910767e-02,-7.090540230274200439e-02,-1.059693694114685059e-01,-5.932037159800529480e-02,-1.869849711656570435e-01,1.683527790009975433e-02,6.435042619705200195e-02,-1.168024837970733643e-01,3.002590313553810120e-02,6.570236291736364365e-03,-7.493760436773300171e-02,8.940312080085277557e-03,-1.684387475252151489e-01,-2.372890859842300415e-01,-2.593445405364036560e-02,5.828145146369934082e-02,9.781520068645477295e-02,4.629477113485336304e-02,-1.086851134896278381e-01,-7.875926047563552856e-02,-2.533442713320255280e-02,2.046980112791061401e-01,-1.247844994068145752e-01,-1.293432861566543579e-01,-1.662758588790893555e-01,4.786943271756172180e-02,5.391427502036094666e-02,-1.851885616779327393e-01,-1.310025453567504883e-01,3.366183117032051086e-02,-2.099153548479080200e-01,-6.296791136264801025e-02,-7.973399758338928223e-02,-8.897237479686737061e-02,-1.425625383853912354e-01,-4.348158836364746094e-02,-6.661596149206161499e-02,-1.063381657004356384e-01,1.127107068896293640e-01,-1.330325007438659668e-01,-6.143635883927345276e-02,-1.406223326921463013e-01,4.618745297193527222e-02,-7.650312781333923340e-02,-3.745651245117187500e-02,6.070647761225700378e-02,3.299001604318618774e-02,5.382469668984413147e-02,1.263759434223175049e-01,1.522973924875259399e-01,-3.344630822539329529e-02,-3.436384722590446472e-02,-8.507578819990158081e-02,1.052841171622276306e-01,-7.440029829740524292e-02,1.909214258193969727e-01,1.451380997896194458e-01,-1.225095391273498535e-01,1.172490790486335754e-01,1.677167862653732300e-01,1.286404132843017578e-01,-1.261510998010635376e-01,-1.270455718040466309e-01,-1.313355416059494019e-01,-1.599775403738021851e-01,1.120890900492668152e-01,-1.465855538845062256e-01,1.488869935274124146e-01,-4.510284587740898132e-02,-2.736713923513889313e-02,-1.536151617765426636e-01,1.735864877700805664e-01,5.515266582369804382e-02,-4.753577709197998047e-02,2.701222663745284081e-03,1.403888687491416931e-02,-8.812809735536575317e-02,4.262915998697280884e-02,2.818802557885646820e-02,8.172593265771865845e-02,-1.081355214118957520e-01,-6.609145551919937134e-02,-8.714072406291961670e-02,4.432142525911331177e-02,-1.081624701619148254e-01,-1.303526163101196289e-01,-1.095744743943214417e-01,-1.606239378452301025e-01,9.481339156627655029e-02,-1.796118766069412231e-01,4.003080353140830994e-02,-3.993013501167297363e-02,4.467443004250526428e-02,1.697152405977249146e-01,8.462861925363540649e-02,-8.993869647383689880e-03,1.264965385198593140e-01,1.142179295420646667e-01,-5.678668245673179626e-02,1.426980346441268921e-01,-1.108720824122428894e-01,1.612292379140853882e-01,2.876103110611438751e-02,-2.305467426776885986e-02,1.349896788597106934e-01,1.311251893639564514e-02,5.551961436867713928e-02,-7.489442080259323120e-02,-1.615263819694519043e-01,3.374486416578292847e-02,-7.065500598400831223e-03,1.238711625337600708e-01,-3.370473161339759827e-02,4.340357333421707153e-02,-1.167782172560691833e-01,8.816327154636383057e-02,-1.874504983425140381e-01,1.206052899360656738e-01,-8.842269331216812134e-02,2.988946158438920975e-03
1.641187071800231934e-01,1.659796088933944702e-01,-1.768809370696544647e-02,-3.006213717162609100e-02,-7.895518094301223755e-02,-1.507315188646316528e-01,-4.637224227190017700e-02,8.986854553222656250e-02,-1.483801901340484619e-01,-1.196553409099578857e-01,-9.985152631998062134e-02,2.206685841083526611e-01,6.463783234357833862e-02,6.104836240410804749e-02,-1.021930277347564697e-01,1.995123475790023804e-01,-9.576931595802307129e-02,-1.898749768733978271e-01,-4.767426475882530212e-02,1.283099967986345291e-02,-2.726824255660176277e-03,1.853578723967075348e-02,6.432016938924789429e-02,1.286320388317108154e-01,-1.679621934890747070e-01,-3.824383020401000977e-02,1.657181680202484131e-01,4.177841916680335999e-02,1.208431795239448547e-01,1.270990520715713501e-01,-9.023977071046829224e-02,8.993909507989883423e-02,-1.062197014689445496e-01,-6.519647687673568726e-02,-1.691230833530426025e-01,-3.298199921846389771e-02,-5.782648921012878418e-02,2.155621200799942017e-01,9.122604876756668091e-02,1.363569311797618866e-02,-1.329009085893630981e-01,1.224425956606864929e-01,-9.439463913440704346e-02,1.412431895732879639e-01,2.228374034166336060e-02,-2.099303528666496277e-03,-1.350873857736587524e-01,4.992540180683135986e-02,-1.168826222419738770e-01,-1.988999098539352417e-01,1.781499236822128296e-01,-2.289358153939247131e-02,6.651387363672256470e-02,-2.200422286987304688e-01,7.961411029100418091e-02,1.407608836889266968e-01,6.113383919000625610e-02,-7.258565723896026611e-02,1.193746998906135559e-01,4.795022308826446533e-02,-1.456307917833328247e-01,4.398133978247642517e-02,1.308293938636779785e-01,-8.789908885955810547e-02,4.624677449464797974e-02,-1.404573917388916016e-01,7.971893996000289917e-02,1.765556335449218750e-01,2.248521149158477783e-02,-6.099696736782789230e-03,3.534713014960289001e-02,-5.839042365550994873e-02,-7.234225980937480927e-03,-1.592415422201156616e-01,1.110589504241943359e-01,1.759167015552520752e-01,1.782503128051757812e-01,-1.076922267675399780e-01,1.316802650690078735e-01,-1.363045275211334229e-01,5.162609741091728210e-02,4.268610104918479919e-02,-1.494544148445129395e-01,1.014008671045303345e-01,-1.478818207979202271e-01,-9.507304430007934570e-02,1.796422153711318970e-01,-4.756224527955055237e-02,1.826217621564865112e-01,5.519681051373481750e-02,1.555957943201065063e-01,-1.681624203920364380e-01,-2.396930195391178131e-02,-8.377209305763244629e-02,1.281818002462387085e-01,1.437778174877166748e-01,8.397611975669860840e-02,2.056802809238433838e-02,-6.510399281978607178e-02,-9.532416611909866333e-02,-1.776437312364578247e-01,1.080106645822525024e-01,-1.682808250188827515e-01,-5.256556347012519836e-02,1.108340173959732056e-01,2.081250026822090149e-02,-8.446578681468963623e-02,4.418103955686092377e-03,-5.237125977873802185e-02,-3.571152314543724060e-02,1.290660202503204346e-01,1.421150863170623779e-01,-5.607048422098159790e-02,-1.152265667915344238e-01,1.549464017152786255e-01,4.472348839044570923e-02,9.824533760547637939e-02,-6.916924566030502319e-02,1.189829930663108826e-01,8.346162736415863037e-02,-1.376218646764755249e-01,1.041627973318099976e-01,1.116845309734344482e-01,1.205047592520713806e-01,-1.304677277803421021e-01,-8.171387761831283569e-02,4.908680170774459839e-02,-1.427310407161712646e-01,7.143453229218721390e-03
1.797874420881271362e-01,1.205784305930137634e-01,1.644543558359146118e-02,-1.788833588361740112e-01,-1.761833727359771729e-01,2.133711576461791992e-01,-1.062311306595802307e-01,1.493505090475082397e-01,3.809769451618194580e-02,3.409324213862419128e-02,-4.925480484962463379e-02,5.601226538419723511e-02,-7.216531783342361450e-02,1.367448270320892334e-01,-1.371344178915023804e-01,7.187820971012115479e-02,-2.163204997777938843e-01,-9.863596409559249878e-02,-8.942966163158416748e-02,-2.437425404787063599e-02,-1.201742365956306458e-01,-5.777391418814659119e-02,-2.029543668031692505e-01,-7.699081674218177795e-03,5.250816792249679565e-02,4.997744038701057434e-02,-2.021337896585464478e-01,3.202058002352714539e-02,-1.515289843082427979e-01,-4.072320833802223206e-02,1.118440926074981689e-01,2.309873513877391815e-02,5.113746970891952515e-02,1.421092748641967773e-01,2.031434029340744019e-01,-1.182825267314910889e-01,1.465533077716827393e-01,-3.970650583505630493e-02,-6.658880412578582764e-02,-2.870222926139831543e-02,-8.856157958507537842e-02,-7.704444229602813721e-03,-4.123099148273468018e-02,-6.915233284235000610e-02,-1.052571237087249756e-01,-1.998266875743865967e-01,-1.369670331478118896e-01,-4.295874387025833130e-03,1.381337642669677734e-01,-5.908706411719322205e-02,-2.628062386065721512e-03,-1.526837646961212158e-01,-1.129362583160400391e-01,6.744861137121915817e-03,-9.035213850438594818e-03,-1.642902195453643799e-01,2.339838817715644836e-02,1.554126888513565063e-01,-1.467734426259994507e-01,4.529101401567459106e-02,2.148064225912094116e-01,1.581970155239105225e-01,-7.960132509469985962e-02,-5.442304909229278564e-02,2.754762768745422363e-02,5.277325399219989777e-03,-1.606545299291610718e-01,1.811488419771194458e-01,-9.173376858234405518e-02,-8.219514042139053345e-02,1.407627314329147339e-01,1.675379723310470581e-01,-8.742946386337280273e-02,1.200009658932685852e-01,6.192661449313163757e-02,2.073512412607669830e-02,-9.769351035356521606e-02,1.712416857481002808e-02,-2.678626775741577148e-02,1.256613526493310928e-03,-7.756089419126510620e-02,9.842377156019210815e-02,1.778371483087539673e-01,-1.375734955072402954e-01,1.379198860377073288e-02,-1.430986355990171432e-02,-8.869889192283153534e-03,-9.617235511541366577e-02,1.248794049024581909e-01,1.520997136831283569e-01,4.293839633464813232e-02,1.726254969835281372e-01,-4.125364497303962708e-02,-6.004569306969642639e-02,-1.329988092184066772e-01,1.308868229389190674e-01,-1.755237430334091187e-01,8.144857734441757202e-02,6.257792562246322632e-02,-9.386593103408813477e-02,1.240291893482208252e-01,-5.362021550536155701e-02,-1.082763746380805969e-01,5.956026166677474976e-02,8.959635160863399506e-03,-1.146596744656562805e-01,-9.430970251560211182e-02,-6.698530912399291992e-02,-1.139633655548095703e-01,-4.845125973224639893e-02,1.675712317228317261e-01,1.047543138265609741e-01,-6.410900503396987915e-02,-9.290699660778045654e-02,4.986798390746116638e-02,-3.181786835193634033e-02,7.345835119485855103e-02,-5.964473634958267212e-02,5.045255646109580994e-03,-4.703864082694053650e-02,1.527769267559051514e-01,9.437714703381061554e-03,-1.911651156842708588e-02,3.747455030679702759e-02,8.111993223428726196e-02,1.124253147281706333e-03,-1.075347536243498325e-03,1.497558802366256714e-01,6.414815317839384079e-03
-9.617827087640762329e-02,3.913804516196250916e-02,-1.075420007109642029e-01,1.045642644166946411e-01,3.823116421699523926e-02,4.727425798773765564e-02,5.596526432782411575e-03,1.587805896997451782e-01,1.657805740833282471e-01,1.103829815983772278e-01,1.118014231324195862e-01,-1.412395834922790527e-01,8.623387664556503296e-02,-7.907042652368545532e-02,-8.081167936325073242e-02,-1.197475120425224304e-01,-4.877013340592384338e-02,1.211330294609069824e-01,-3.939701989293098450e-02,6.586046516895294189e-02,-1.113697071559727192e-04,-7.581005990505218506e-02,1.922934949398040771e-01,-1.028652861714363098e-01,5.816371366381645203e-02,-1.015212610363960266e-01,-1.383747532963752747e-02,-8.064648509025573730e-02,7.012993097305297852e-02,8.589956164360046387e-02,8.319009095430374146e-02,1.740902811288833618e-01,-1.344843506813049316e-01,-4.618280008435249329e-02,3.925748169422149658e-02,-1.170288100838661194e-01,8.041553199291229248e-02,-1.407379359006881714e-01,-1.033008322119712830e-01,6.666152179241180420e-02,-8.457288146018981934e-02,5.500371754169464111e-02,2.025403641164302826e-02,1.452323049306869507e-01,-1.235537901520729065e-01,-1.132662370800971985e-01,1.290071308612823486e-01,9.893309324979782104e-02,1.157928183674812317e-01,-1.066743358969688416e-01,9.478104114532470703e-02,-4.336812347173690796e-02,-3.935263305902481079e-02,1.142457798123359680e-01,8.584475517272949219e-02,1.133127585053443909e-01,-1.064952984452247620e-01,-1.961975395679473877e-01,-3.323649242520332336e-02,5.841524153947830200e-02,-7.776034623384475708e-02,-2.043194919824600220e-01,-1.282373517751693726e-01,-9.005518257617950439e-02,1.183028593659400940e-01,1.061472576111555099e-02,5.029755830764770508e-02,-9.357159584760665894e-02,1.781082153320312500e-01,-3.465931490063667297e-02,8.878054469823837280e-02,-1.313757151365280151e-01,-1.683766543865203857e-01,8.419508114457130432e-03,-4.261521250009536743e-02,2.539499104022979736e-02,-5.601161718368530273e-02,-1.782190054655075073e-01,-1.527352780103683472e-01,3.553178533911705017e-02,2.023088512942194939e-03,-1.032232120633125305e-01,-8.251769095659255981e-02,2.957611531019210815e-02,-5.236266925930976868e-02,1.623400896787643433e-01,1.274882704019546509e-01,4.740370810031890869e-02,-3.393161343410611153e-03,9.728910028934478760e-02,6.357189267873764038e-02,-9.998874738812446594e-03,-3.640189766883850098e-02,-4.175585880875587463e-02,-1.336491852998733521e-01,-1.285486668348312378e-01,3.409914299845695496e-02,-1.351935565471649170e-01,8.496611565351486206e-02,-4.278319329023361206e-02,-1.110297292470932007e-01,-1.289745718240737915e-01,1.665963679552078247e-01,1.503470689058303833e-01,-3.280306607484817505e-02,-9.422299265861511230e-02,-1.115335077047348022e-01,-2.978694625198841095e-02,1.582143157720565796e-01,-1.201729774475097656e-01,1.442756950855255127e-01,-8.804795891046524048e-02,-1.125810109078884125e-02,1.615824699401855469e-01,-1.672754436731338501e-01,1.107484996318817139e-01,1.126166805624961853e-01,1.496484875679016113e-01,-4.566488787531852722e-02,1.057770773768424988e-01,-1.251699477434158325e-01,-2.722189202904701233e-02,-9.232252836227416992e-02,3.026702255010604858e-02,-8.031653612852096558e-02,7.938852906227111816e-02,1.648567169904708862e-01,-1.643679738044738770e-01,3.244346473366022110e-03
7.061025500297546387e-02,1.452171057462692261e-01,-1.124306321144104004e-01,-5.676665902137756348e-02,6.891942024230957031e-02,7.757638394832611084e-02,2.020468115806579590e-01,1.114413514733314514e-01,-1.535882204771041870e-01,1.767089031636714935e-02,-7.629130035638809204e-02,-3.963090106844902039e-02,-6.364496052265167236e-02,1.231560669839382172e-02,-4.290208593010902405e-02,-1.305985301733016968e-01,-1.968245953321456909e-01,9.831643104553222656e-02,-1.873590946197509766e-01,-4.419681616127490997e-03,-1.017249301075935364e-01,-1.763306558132171631e-01,-1.391368508338928223e-01,7.349792122840881348e-02,-1.043058335781097412e-01,1.530667096376419067e-01,-1.341082751750946045e-01,-4.487939924001693726e-02,-1.246199533343315125e-01,-2.128122933208942413e-02,1.568824946880340576e-01,1.170720681548118591e-01,-1.236456483602523804e-01,9.269680827856063843e-02,-5.643028020858764648e-02,-1.350184082984924316e-01,1.027152501046657562e-02,3.448006510734558105e-02,1.210579052567481995e-01,-1.952357590198516846e-01,1.953671127557754517e-02,3.035470098257064819e-02,-8.249592036008834839e-02,6.993013620376586914e-02,-2.509617432951927185e-02,-1.732981055974960327e-01,-7.810934330336749554e-04,-1.506071537733078003e-01,1.724395155906677246e-01,5.439850315451622009e-02,1.028534248471260071e-01,1.326000783592462540e-02,1.844839900732040405e-01,-6.788046658039093018e-02,-1.836884021759033203e-02,1.474446803331375122e-01,1.189305335283279419e-01,7.819674164056777954e-02,-1.822474226355552673e-02,-8.838035166263580322e-02,9.782764315605163574e-02,2.191996574401855469e-01,-8.194509148597717285e-02,5.245520267635583878e-03,-8.860646188259124756e-02,-2.315340377390384674e-02,2.775545418262481689e-02,1.251818686723709106e-01,7.923283427953720093e-02,4.891267791390419006e-02,8.567133545875549316e-02,5.386190023273229599e-03,-6.368468701839447021e-02,-1.309794038534164429e-01,6.998030096292495728e-02,4.079332947731018066e-02,7.362397015094757080e-02,-6.109837442636489868e-02,-8.525208383798599243e-02,-1.198809295892715454e-01,1.256491430103778839e-02,3.953062742948532104e-02,-1.527189016342163086e-01,-1.233263984322547913e-01,1.110091879963874817e-01,-1.338316034525632858e-02,-1.194691210985183716e-01,1.822898536920547485e-01,-8.660882711410522461e-02,1.868639886379241943e-02,-9.485587477684020996e-02,4.138236865401268005e-03,-1.218250095844268799e-01,-1.027435958385467529e-01,1.346280723810195923e-01,-5.894627794623374939e-02,-9.308534860610961914e-02,1.804171502590179443e-02,1.728630512952804565e-01,8.671063929796218872e-02,-8.464368432760238647e-02,2.771853655576705933e-02,-1.010857895016670227e-01,-1.404918283224105835e-01,-1.277987211942672729e-01,1.494581103324890137e-01,-1.052983403205871582e-01,-1.364029198884963989e-01,1.212896630167961121e-01,1.421837955713272095e-01,-8.638046681880950928e-02,-1.067618932574987411e-02,-5.774176120758056641e-02,8.068966865539550781e-02,-1.527889519929885864e-01,-1.563450545072555542e-01,-5.484334751963615417e-02,-8.706630021333694458e-02,-1.187766715884208679e-01,5.324528366327285767e-02,1.684411466121673584e-01,1.356035284698009491e-02,1.562503874301910400e-01,-4.255598038434982300e-02,1.204449459910392761e-01,2.817611396312713623e-02,1.341031342744827271e-01,9.135167300701141357e-02,2.143852971494197845e-02
2.516875974833965302e-02,-6.692086160182952881e-02,-1.148802414536476135e-01,-2.037221938371658325e-02,2.021203637123107910e-01,1.531087905168533325e-01,6.818888336420059204e-02,6.011528521776199341e-02,-2.836068905889987946e-02,-1.148397773504257202e-01,6.581938359886407852e-03,-1.873130053281784058e-01,2.451438689604401588e-03,1.096973940730094910e-01,-1.777812242507934570e-01,-2.192768827080726624e-02,-2.296345867216587067e-02,7.551667839288711548e-02,4.774962738156318665e-02,-8.422429859638214111e-02,4.094947129487991333e-02,7.935794442892074585e-02,-5.620488524436950684e-02,3.254863619804382324e-02,-1.222122088074684143e-02,1.960197091102600098e-01,7.171476632356643677e-02,1.364828795194625854e-01,-1.307612359523773193e-01,6.997904181480407715e-02,-7.419364154338836670e-02,-1.694471985101699829e-01,1.094628274440765381e-01,1.716469824314117432e-01,-8.053947985172271729e-02,-2.489294484257698059e-02,-1.173529550433158875e-01,-3.316697105765342712e-02,5.888574942946434021e-02,-8.184388279914855957e-02,-1.271603554487228394e-01,4.902699962258338928e-02,2.551832981407642365e-02,9.978179819881916046e-03,-5.215348210185766220e-03,-2.540814317762851715e-02,8.267988264560699463e-02,4.027849435806274414e-02,1.370766665786504745e-03,1.081938296556472778e-01,-1.131472811102867126e-01,1.610461473464965820e-01,6.559723615646362305e-02,1.553512215614318848e-01,7.514888048171997070e-02,3.588356077671051025e-03,6.562142819166183472e-02,2.377119474112987518e-02,1.271703541278839111e-01,-8.543924242258071899e-02,-1.313335746526718140e-01,5.449957773089408875e-02,1.001907065510749817e-01,-2.355401171371340752e-03,2.067122757434844971e-01,-1.028811559081077576e-01,-1.754450239241123199e-02,8.464671671390533447e-02,1.044453531503677368e-01,1.788886636495590210e-02,-1.305691897869110107e-01,7.437610626220703125e-02,-1.533778756856918335e-01,-2.513470314443111420e-02,-6.819064170122146606e-02,-1.137050092220306396e-01,-8.475901186466217041e-02,-7.535421848297119141e-02,1.498027052730321884e-02,-1.928392201662063599e-01,-3.966878354549407959e-02,-1.176482364535331726e-01,7.181975990533828735e-02,-5.227045714855194092e-02,-7.801130414009094238e-02,-5.637374520301818848e-02,-8.792138099670410156e-02,-6.218540482223033905e-03,4.362455382943153381e-02,-2.700852230191230774e-02,1.061333790421485901e-01,1.471330821514129639e-01,9.181528538465499878e-02,-1.663211435079574585e-01,-1.255568712949752808e-01,-1.367207616567611694e-01,-1.288548707962036133e-01,9.137904644012451172e-02,8.867694437503814697e-02,-3.562426939606666565e-02,-4.214509576559066772e-02,1.101626306772232056e-01,1.160153597593307495e-01,-1.126628816127777100e-01,-1.682795286178588867e-01,-1.275477111339569092e-01,-1.475339978933334351e-01,2.580190636217594147e-02,1.702091842889785767e-01,2.110217697918415070e-02,-3.852784633636474609e-02,-4.677575454115867615e-02,-1.157274618744850159e-01,4.270898550748825073e-02,-1.049137338995933533e-01,-1.588675677776336670e-01,-1.094986349344253540e-01,-7.611487060785293579e-02,4.390966519713401794e-02,4.001890122890472412e-02,4.686785396188497543e-03,1.228564679622650146e-01,-1.178175285458564758e-01,-2.765877544879913330e-02,1.101837754249572754e-01,8.624869585037231445e-02,1.023599579930305481e-01,-9.792263060808181763e-02,1.623531617224216461e-02
1.472652610391378403e-02,1.561241447925567627e-01,1.305893808603286743e-01,2.117293141782283783e-02,-9.243796020746231079e-02,1.373719573020935059e-01,5.111446231603622437e-02,-1.117880865931510925e-01,-7.220596820116043091e-02,-7.698868215084075928e-02,-1.098729390650987625e-02,4.913594573736190796e-02,-1.897398829460144043e-01,-9.834059327840805054e-02,8.053993433713912964e-02,-4.970469325780868530e-02,-2.385623939335346222e-02,1.690104007720947266e-01,5.186718329787254333e-02,7.369685173034667969e-02,-1.698871105909347534e-01,-1.164763122797012329e-01,-1.093325689435005188e-01,-1.314721852540969849e-01,1.784569025039672852e-01,-1.191973909735679626e-01,6.539452355355024338e-03,5.219098553061485291e-02,7.407814264297485352e-02,1.721865832805633545e-01,-1.652602292597293854e-02,-1.529616117477416992e-01,-4.756793379783630371e-02,-9.802856296300888062e-02,1.552642136812210083e-01,-9.476459771394729614e-02,-9.124175459146499634e-02,1.379519701004028320e-01,-1.006789728999137878e-01,-1.251073181629180908e-01,2.892388962209224701e-02,-3.470637276768684387e-02,1.629116982221603394e-01,-1.820694655179977417e-01,1.781940907239913940e-01,-9.566714614629745483e-02,-5.885453894734382629e-02,-4.245876520872116089e-02,1.473789215087890625e-01,1.268951892852783203e-01,-2.433648519217967987e-02,2.485432848334312439e-02,2.451010793447494507e-02,4.892521351575851440e-02,1.269894242286682129e-01,1.285738348960876465e-01,-2.793092653155326843e-02,1.937214434146881104e-01,1.584962010383605957e-01,1.285547614097595215e-01,-5.234555341303348541e-03,6.153892725706100464e-02,5.337280407547950745e-02,1.299788206815719604e-01,2.077007144689559937e-01,1.530080735683441162e-01,2.866135165095329285e-02,-5.219648778438568115e-02,7.710756361484527588e-02,1.251561790704727173e-01,4.289836063981056213e-02,-9.716683626174926758e-02,-1.480725407600402832e-01,-2.220273017883300781e-02,8.020275086164474487e-02,2.139552496373653412e-02,-3.380896523594856262e-02,-3.052049875259399414e-02,-1.444806158542633057e-01,5.308681353926658630e-02,1.508749276399612427e-01,-1.195568367838859558e-01,1.298648118972778320e-01,8.191554993391036987e-02,7.045407593250274658e-02,-1.669328776188194752e-04,8.256796747446060181e-02,2.268778905272483826e-02,-7.559716701507568359e-02,2.474471554160118103e-02,1.880821585655212402e-01,-1.646826863288879395e-01,1.197228208184242249e-01,1.259685605764389038e-01,-1.631624531000852585e-03,9.358239173889160156e-02,2.177364006638526917e-02,2.811467275023460388e-02,1.426153928041458130e-01,1.229000091552734375e-01,1.048693433403968811e-01,-3.012873977422714233e-02,-1.606515347957611084e-01,1.535402983427047729e-01,-1.178647652268409729e-01,2.098745256662368774e-01,-5.497413076227530837e-05,1.027220413088798523e-01,7.337693870067596436e-02,-9.204088151454925537e-02,-1.048805341124534607e-01,1.469607502222061157e-01,-9.939152747392654419e-03,-6.656118482351303101e-02,4.049572348594665527e-02,-1.717884987592697144e-01,1.092085167765617371e-01,-5.006349831819534302e-02,7.810981571674346924e-02,-8.764104545116424561e-02,-5.288688465952873230e-03,1.170258149504661560e-01,-1.085368469357490540e-01,-1.371851414442062378e-01,-1.213586106896400452e-01,-1.444047242403030396e-01,3.057770198211073875e-03,1.549848318099975586e-01,1.958233304321765900e-02
9.353277087211608887e-02,1.609038561582565308e-01,1.138866096735000610e-01,-5.224889516830444336e-02,-8.577208220958709717e-02,-2.074194699525833130e-01,-1.359427571296691895e-01,2.029379904270172119e-01,-7.800039649009704590e-02,1.763394027948379517e-01,-2.106301784515380859e-01,-1.251689195632934570e-01,-1.319033354520797729e-01,-2.489363960921764374e-02,1.396542340517044067e-01,1.647318601608276367e-01,1.401602625846862793e-01,-1.401993781328201294e-01,1.693371981382369995e-01,6.452997773885726929e-02,2.628690749406814575e-02,1.761944890022277832e-01,3.042439557611942291e-02,-1.756255775690078735e-01,-6.769876182079315186e-02,-8.712043613195419312e-02,1.465753316879272461e-01,-1.537395715713500977e-01,5.465596914291381836e-03,1.758518517017364502e-01,-6.774786859750747681e-02,5.629151314496994019e-02,5.871090665459632874e-02,5.094216018915176392e-02,-2.204429730772972107e-02,2.176911383867263794e-01,-4.275276511907577515e-02,-1.020361036062240601e-01,-9.355814196169376373e-03,-3.546921908855438232e-02,6.689307838678359985e-02,5.072578042745590210e-02,-1.401226371526718140e-01,9.016333520412445068e-02,-1.298219412565231323e-01,-3.287886455655097961e-02,1.189638823270797729e-01,1.482919901609420776e-01,1.528232842683792114e-01,-6.008835881948471069e-02,7.179979979991912842e-02,1.188572403043508530e-02,-1.260244399309158325e-01,5.495645105838775635e-02,2.131356745958328247e-01,1.912349015474319458e-01,-5.357055738568305969e-02,-1.656664162874221802e-01,-1.318676769733428955e-01,2.082017064094543457e-01,-1.003493517637252808e-01,-2.086220532655715942e-01,6.240809336304664612e-02,9.959415346384048462e-02,7.582387328147888184e-02,1.909923739731311798e-02,-1.111529096961021423e-01,-8.347667753696441650e-02,-2.821831731125712395e-04,-2.202325686812400818e-02,-7.356908917427062988e-02,8.414557576179504395e-02,-1.610792726278305054e-01,1.596739888191223145e-01,1.248984970152378082e-02,-5.644528195261955261e-02,-7.579646259546279907e-02,1.346409171819686890e-01,9.991522133350372314e-02,8.778683841228485107e-02,3.166485950350761414e-02,-1.145584583282470703e-01,-7.267348468303680420e-02,-9.308625757694244385e-02,-6.358727812767028809e-02,-1.186928823590278625e-01,-1.332363858819007874e-02,-3.197863325476646423e-02,-9.676426649093627930e-02,-1.629003584384918213e-01,1.485860645771026611e-01,1.391499489545822144e-01,-1.387896984815597534e-01,-6.210179626941680908e-02,1.334524899721145630e-01,-1.560834795236587524e-01,8.793591707944869995e-02,-6.347830593585968018e-02,6.221784651279449463e-02,-5.868329107761383057e-02,-2.607825957238674164e-02,-8.080872148275375366e-02,-1.855394840240478516e-01,1.419827044010162354e-01,1.301406621932983398e-01,2.880429476499557495e-02,-6.127983797341585159e-03,-7.445880770683288574e-02,-6.125138327479362488e-02,-1.478264182806015015e-01,1.653453856706619263e-01,7.540670782327651978e-02,8.049228042364120483e-02,-6.958407163619995117e-02,-1.249091252684593201e-01,1.351350639015436172e-02,3.458384796977043152e-02,-4.497379064559936523e-02,1.437539160251617432e-01,-1.842526644468307495e-01,3.013220801949501038e-02,8.847563527524471283e-03,-1.514734476804733276e-01,4.434699192643165588e-03,9.396419674158096313e-02,1.724502742290496826e-01,1.047771200537681580e-01,1.229313574731349945e-02,1.299076341092586517e-02
-1.475543975830078125e-01,-3.997718542814254761e-02,-1.454803794622421265e-01,3.496135771274566650e-02,-2.069333046674728394e-01,-2.003889381885528564e-01,-1.806611567735671997e-01,1.935634613037109375e-01,1.793606765568256378e-02,1.696165502071380615e-01,2.784936502575874329e-02,1.952615231275558472e-01,-5.829736590385437012e-02,-3.531115129590034485e-02,1.964347958564758301e-01,9.284569881856441498e-03,1.421419670805335045e-03,-2.163158506155014038e-01,2.274853438138961792e-01,-1.693448424339294434e-02,-2.439289540052413940e-02,6.035754084587097168e-02,1.965487301349639893e-01,-1.957141757011413574e-01,2.380307018756866455e-02,-1.422037035226821899e-01,4.144395515322685242e-02,-3.702416643500328064e-02,5.643994733691215515e-02,-6.952666491270065308e-02,-1.451177895069122314e-02,-9.380110353231430054e-02,7.843331247568130493e-02,-3.776349499821662903e-02,1.363263092935085297e-02,1.486750990152359009e-01,1.517043113708496094e-01,1.542462706565856934e-01,4.775338992476463318e-02,1.725273728370666504e-01,-1.309602409601211548e-01,-5.286173895001411438e-02,-1.057227924466133118e-01,-3.593401983380317688e-02,-1.582370698451995850e-01,3.747389093041419983e-02,-7.345940917730331421e-02,1.726543903350830078e-01,1.874852031469345093e-01,-1.612144559621810913e-01,1.082626432180404663e-01,-1.630079299211502075e-01,-1.640144288539886475e-01,-2.158326208591461182e-01,-9.860743582248687744e-02,3.136850520968437195e-02,-1.529163867235183716e-01,-5.949349701404571533e-02,1.260130107402801514e-01,-3.022009320557117462e-02,-1.312891542911529541e-01,-1.251557022333145142e-01,1.058942526578903198e-01,-3.738496452569961548e-02,-3.379387781023979187e-02,1.652495712041854858e-01,5.447268858551979065e-02,1.496267467737197876e-01,-1.485521197319030762e-01,-3.089251741766929626e-02,1.105912402272224426e-01,6.875918060541152954e-02,8.185928687453269958e-03,4.549123346805572510e-03,1.301698684692382812e-01,-8.001863211393356323e-02,7.775154709815979004e-02,1.584465801715850830e-02,1.671507358551025391e-01,2.522248961031436920e-02,3.545804321765899658e-02,-1.472880840301513672e-01,-5.404196679592132568e-03,-1.028233990073204041e-01,-1.451893616467714310e-02,-4.240642488002777100e-02,-7.069642096757888794e-02,-5.003917589783668518e-02,1.473247557878494263e-01,2.896984852850437164e-02,-1.498779375106096268e-02,-5.269308760762214661e-02,-7.500973343849182129e-02,-1.860419102013111115e-02,8.639734983444213867e-02,-2.379352226853370667e-02,1.599255055189132690e-01,-7.568454369902610779e-03,-8.927607536315917969e-02,1.790513284504413605e-02,8.270853757858276367e-02,1.131120026111602783e-01,-1.656180918216705322e-01,1.701887547969818115e-01,-2.075277082622051239e-02,7.601723074913024902e-02,-1.253739297389984131e-01,3.078838251531124115e-02,2.508443780243396759e-02,1.611639857292175293e-01,6.638769060373306274e-02,8.417493849992752075e-02,8.921313285827636719e-02,-2.431440539658069611e-02,-3.373490879312157631e-03,-3.154818341135978699e-02,-5.890497192740440369e-02,8.815482258796691895e-02,-4.019602015614509583e-02,2.636155672371387482e-02,-2.777520800009369850e-03,9.033349901437759399e-02,1.027987226843833923e-01,-1.145227253437042236e-01,8.656302094459533691e-02,-1.385312154889106750e-02,-7.306823879480361938e-02,-1.277466863393783569e-01,7.323487661778926849e-03
-2.474785782396793365e-02,-1.008770465850830078e-01,1.277983933687210083e-01,1.837753355503082275e-01,-1.443634778261184692e-01,-1.020148098468780518e-01,-5.389849096536636353e-02,-3.466527536511421204e-02,-1.235460340976715088e-01,2.378925494849681854e-02,4.605947434902191162e-02,1.780082844197750092e-02,-1.535882800817489624e-01,1.415555924177169800e-01,6.968525052070617676e-02,-6.049535050988197327e-02,1.129641383886337280e-01,8.260080218315124512e-02,-8.493947982788085938e-02,6.700212508440017700e-02,4.085953533649444580e-02,6.556531041860580444e-02,-7.852210849523544312e-02,-8.200761675834655762e-02,5.776622146368026733e-02,6.283801048994064331e-04,3.817891329526901245e-02,-6.942697614431381226e-02,-2.860085479915142059e-02,-1.633940339088439941e-01,-7.881460338830947876e-02,1.136175170540809631e-01,-8.230347186326980591e-02,1.538028568029403687e-01,3.119247965514659882e-03,-2.080126851797103882e-01,5.656980723142623901e-02,-4.680296406149864197e-02,8.471275120973587036e-02,-1.512552201747894287e-01,-3.465235233306884766e-02,3.734500613063573837e-03,5.348316580057144165e-02,-1.717584729194641113e-01,8.229161798954010010e-02,7.761908322572708130e-02,1.000326350331306458e-01,8.475625514984130859e-02,-1.078842431306838989e-01,1.905487328767776489e-01,-1.617625169456005096e-02,-1.304198652505874634e-01,2.143078483641147614e-02,1.584370434284210205e-01,2.342553623020648956e-02,-1.693991869688034058e-01,1.459585428237915039e-01,2.963484637439250946e-02,1.134813670068979263e-02,-1.304292827844619751e-01,1.196033903397619724e-03,-1.060243882238864899e-02,5.068554729223251343e-02,1.320829689502716064e-01,-1.006137654185295105e-01,-7.090297993272542953e-03,1.532654911279678345e-01,-1.469307765364646912e-02,1.368930637836456299e-01,-3.362512961030006409e-02,-1.444116979837417603e-01,5.472487770020961761e-03,-1.477396935224533081e-01,8.009888231754302979e-03,3.845922276377677917e-02,6.053054705262184143e-02,1.254661828279495239e-01,-1.544056534767150879e-01,-4.487024620175361633e-02,-1.294994801282882690e-01,8.169282227754592896e-02,1.525012217462062836e-02,-9.958291053771972656e-02,1.141623780131340027e-01,-4.104537889361381531e-02,8.391490578651428223e-02,3.216328099370002747e-02,1.253799349069595337e-01,-1.491768807172775269e-01,7.298872340470552444e-03,1.440254747867584229e-01,1.616453230381011963e-01,-6.257757544517517090e-02,1.200169995427131653e-01,-1.750578545033931732e-02,-6.928494572639465332e-02,1.517220437526702881e-01,-2.238999586552381516e-03,1.622023880481719971e-01,-9.711061418056488037e-02,-3.024899866431951523e-03,1.618999540805816650e-01,-2.832730859518051147e-02,2.087925374507904053e-02,3.506308048963546753e-02,2.920002490282058716e-02,-1.115353703498840332e-01,7.364165782928466797e-02,-1.010842546820640564e-01,6.883453577756881714e-02,-7.893119752407073975e-02,-5.903172492980957031e-02,1.096331104636192322e-01,7.066260278224945068e-02,1.453110128641128540e-01,1.673583500087261200e-02,1.385815888643264771e-01,-1.670839786529541016e-01,-1.920175738632678986e-02,-3.838082402944564819e-02,7.288513332605361938e-02,1.366577297449111938e-01,9.676333516836166382e-02,-3.538089990615844727e-02,1.251058578491210938e-01,4.126400221139192581e-03,-1.390070617198944092e-01,1.033431142568588257e-01,-1.202732906676828861e-03
-9.847138822078704834e-02,5.432812031358480453e-03,1.593492925167083740e-01,1.007223129272460938e-01,1.636592745780944824e-01,-1.218141764402389526e-01,-2.013614028692245483e-01,-4.886019974946975708e-02,-6.142661720514297485e-02,1.755778938531875610e-01,-3.270213678479194641e-02,6.481370422989130020e-03,1.281129270792007446e-01,1.372680962085723877e-01,-3.340288996696472168e-02,1.997236013412475586e-01,-2.752211317420005798e-02,-1.752319335937500000e-01,-1.600663661956787109e-01,-1.699291765689849854e-01,-1.125736534595489502e-01,1.426813453435897827e-01,7.608532439917325974e-03,1.126499027013778687e-01,5.521853640675544739e-02,2.197993360459804535e-02,9.011001884937286377e-02,-1.438963413238525391e-01,3.618991002440452576e-02,1.586561203002929688e-01,3.682916611433029175e-02,5.497107282280921936e-02,-1.302654892206192017e-01,1.667490005493164062e-01,1.148948911577463150e-02,-9.532105922698974609e-02,-3.331286087632179260e-02,-5.882867798209190369e-02,-1.742683053016662598e-01,-1.209100633859634399e-01,7.011103443801403046e-03,1.530433297157287598e-01,1.730323880910873413e-01,1.231262236833572388e-01,-1.601263880729675293e-01,-3.521091490983963013e-02,5.963612720370292664e-02,3.480218816548585892e-03,-1.299551278352737427e-01,7.659433037042617798e-02,-7.605439424514770508e-02,4.302715510129928589e-02,1.581436097621917725e-01,1.490292698144912720e-02,2.432914334349334240e-04,1.727562248706817627e-01,9.463729709386825562e-02,-9.825406223535537720e-02,-1.087990477681159973e-01,1.178594678640365601e-01,-7.083368301391601562e-02,-1.377197820693254471e-02,1.155359297990798950e-01,-4.024895280599594116e-02,-2.112294584512710571e-01,1.180983409285545349e-01,2.138449251651763916e-02,-1.371964998543262482e-02,-7.486233860254287720e-02,-6.905379146337509155e-02,-1.919965147972106934e-01,-1.877911537885665894e-01,-1.422012001276016235e-01,-4.868938401341438293e-02,1.217274181544780731e-02,2.420881949365139008e-02,-1.858825087547302246e-01,-1.256986260414123535e-01,-1.880577206611633301e-01,-1.234742328524589539e-01,-1.971607953310012817e-01,3.879278525710105896e-02,1.483621895313262939e-01,6.467212736606597900e-02,1.745906174182891846e-01,-6.826914846897125244e-02,6.737975031137466431e-02,1.264595538377761841e-01,-1.102981939911842346e-01,1.260329224169254303e-02,1.294476985931396484e-01,1.190347895026206970e-01,1.091658771038055420e-01,-1.367373764514923096e-01,2.381078153848648071e-02,-5.494180694222450256e-02,-1.565649807453155518e-01,-8.631709218025207520e-02,1.447793841361999512e-01,-2.550964802503585815e-02,6.163585186004638672e-02,1.237303838133811951e-01,-3.794475644826889038e-02,-7.999850064516067505e-02,-2.581177465617656708e-02,6.520173046737909317e-03,-2.988581731915473938e-02,-1.402110904455184937e-01,4.424323141574859619e-02,1.209277808666229248e-01,-8.126936852931976318e-02,-1.227327212691307068e-01,-7.883515954017639160e-02,2.228241413831710815e-02,6.974606309086084366e-03,-1.465937942266464233e-01,-5.664014816284179688e-02,-1.018898785114288330e-01,-1.280824095010757446e-01,-7.648722082376480103e-02,-9.159509837627410889e-02,-8.139190822839736938e-02,-1.925288140773773193e-01,8.579861372709274292e-02,-3.308857604861259460e-02,1.394005864858627319e-01,-5.723816901445388794e-02,-1.048993095755577087e-01,-1.855378597974777222e-02
1.430854499340057373e-01,-1.317347437143325806e-01,1.573984175920486450e-01,7.186861336231231689e-02,1.062882170081138611e-01,1.222784146666526794e-01,1.648748815059661865e-01,1.916218250989913940e-01,1.208941787481307983e-01,-1.775917857885360718e-01,7.736116647720336914e-02,1.052245348691940308e-01,-4.248260706663131714e-02,-5.914165824651718140e-02,-1.060044318437576294e-01,1.463686376810073853e-01,-1.894994378089904785e-01,7.949021458625793457e-02,3.315112739801406860e-02,6.377868354320526123e-02,1.341085433959960938e-01,-1.908349692821502686e-01,-1.839338392019271851e-01,1.523094344884157181e-02,-2.008667681366205215e-03,-4.466940462589263916e-02,-1.131840646266937256e-01,1.200646087527275085e-01,5.086667835712432861e-02,-7.644585520029067993e-02,2.065205723047256470e-01,1.303893029689788818e-01,-3.313072957098484039e-04,1.258613467216491699e-01,2.041896134614944458e-01,3.910682722926139832e-02,-2.088589072227478027e-01,2.087583690881729126e-01,1.335929036140441895e-01,-2.000901550054550171e-01,-6.453382968902587891e-02,1.546959765255451202e-02,1.863643825054168701e-01,8.524548262357711792e-02,-1.066063642501831055e-01,-6.966225057840347290e-02,1.246894598007202148e-01,-8.942852914333343506e-02,1.111717224121093750e-01,1.363487262278795242e-02,-1.517998427152633667e-01,-2.091856598854064941e-01,-8.164183795452117920e-02,7.826159149408340454e-02,2.802590280771255493e-02,-9.567844681441783905e-03,1.273154765367507935e-01,2.123999446630477905e-01,6.824962049722671509e-02,1.174473538994789124e-01,3.452109172940254211e-02,9.717832505702972412e-02,-2.060702145099639893e-01,1.487994007766246796e-02,-4.242787510156631470e-02,-1.580604910850524902e-02,-1.097147236578166485e-03,4.456286318600177765e-03,-7.083682715892791748e-02,-1.535104513168334961e-01,-1.358831971883773804e-01,1.102723330259323120e-01,3.654865548014640808e-02,-1.370452344417572021e-01,-4.830385372042655945e-02,-1.619688719511032104e-01,-5.075191706418991089e-02,6.449576467275619507e-02,1.665225178003311157e-01,2.058297861367464066e-03,-8.061909116804599762e-03,-7.608949672430753708e-03,-5.862069316208362579e-03,7.958757877349853516e-02,-1.326514035463333130e-01,-6.977852433919906616e-02,-1.245325654745101929e-01,-1.043006703257560730e-01,-9.819981642067432404e-03,-1.591770350933074951e-01,1.182179450988769531e-01,-5.977621674537658691e-02,3.399223461747169495e-02,1.075798720121383667e-01,-8.299460262060165405e-02,-2.352974377572536469e-02,-1.442251652479171753e-01,-8.040226064622402191e-03,-2.679058909416198730e-02,-1.636248975992202759e-01,-1.894277036190032959e-01,-1.925244554877281189e-02,-1.478547006845474243e-01,1.660431623458862305e-01,1.223507337272167206e-02,-1.409909874200820923e-01,1.380806267261505127e-01,1.649214178323745728e-01,-3.528064582496881485e-03,-7.625363767147064209e-02,7.120803743600845337e-02,-9.669154137372970581e-02,4.781403020024299622e-02,1.224978044629096985e-01,8.869524300098419189e-02,-1.652364246547222137e-02,6.343918293714523315e-02,2.302807057276368141e-03,2.600009553134441376e-02,5.436477717012166977e-03,9.769713133573532104e-02,-6.253758072853088379e-02,1.775610744953155518e-01,2.903706207871437073e-02,1.736620068550109863e-02,8.557201176881790161e-02,5.106770247220993042e-02,9.006518870592117310e-02,2.208734489977359772e-02
-8.339984714984893799e-02,-9.769709408283233643e-02,2.322185784578323364e-02,-2.404765039682388306e-02,-1.600946784019470215e-01,-1.260058134794235229e-01,-1.108024418354034424e-01,1.960175633430480957e-01,-7.912438362836837769e-02,3.094684146344661713e-02,-1.245217844843864441e-01,4.754238575696945190e-02,1.795311123132705688e-01,-3.996565937995910645e-02,1.895350515842437744e-01,-7.827501744031906128e-02,3.151374310255050659e-02,-1.170751973986625671e-01,-7.106292992830276489e-02,2.343650013208389282e-01,-1.359329670667648315e-01,-1.078932806849479675e-01,-8.709706366062164307e-02,-8.526034653186798096e-02,5.766845494508743286e-02,-3.573611751198768616e-02,9.607941657304763794e-02,-1.799475401639938354e-01,5.654050037264823914e-02,9.739615768194198608e-02,-7.338450849056243896e-02,-8.950146287679672241e-02,-1.838048249483108521e-01,-5.741666629910469055e-02,-1.549810320138931274e-01,2.185674160718917847e-01,-7.935415208339691162e-02,2.153469473123550415e-01,-2.084679603576660156e-01,1.817518845200538635e-02,-1.501949429512023926e-01,2.797534130513668060e-02,-7.184090465307235718e-02,2.399362027645111084e-01,-5.681960657238960266e-02,5.226116999983787537e-02,-1.647118031978607178e-01,6.737779080867767334e-02,1.434984803199768066e-01,-3.632703796029090881e-02,-8.725408464670181274e-02,-9.442437440156936646e-02,1.029152199625968933e-01,-2.151443809270858765e-01,9.960795193910598755e-02,1.359550654888153076e-01,-3.694144636392593384e-02,-1.731431037187576294e-01,-1.635386198759078979e-01,-5.743144825100898743e-02,-1.822703778743743896e-01,1.025333330035209656e-01,-1.050782352685928345e-01,1.758198589086532593e-01,4.010718315839767456e-02,-2.314871922135353088e-02,1.515951007604598999e-02,1.758099496364593506e-01,-1.209912938065826893e-03,9.506289660930633545e-02,9.563171118497848511e-02,8.215515315532684326e-02,-7.714023441076278687e-02,-9.190036356449127197e-02,-2.396524511277675629e-02,1.584609150886535645e-01,-1.660838164389133453e-02,-1.290385127067565918e-01,9.345382452011108398e-02,-1.387045234441757202e-01,-2.283454313874244690e-02,1.459685564041137695e-01,-7.089763879776000977e-02,-2.919868566095829010e-02,8.468186855316162109e-02,-8.885296992957592010e-03,1.047757640480995178e-01,1.162502542138099670e-02,-1.111166030168533325e-01,-9.353680908679962158e-02,1.206653844565153122e-02,-1.064911335706710815e-01,3.579057008028030396e-02,1.569675952196121216e-01,-5.119221657514572144e-02,-1.029138192534446716e-01,-7.415813207626342773e-02,1.434995047748088837e-02,-1.670941710472106934e-01,1.941446661949157715e-01,-1.124553605914115906e-01,4.020024091005325317e-02,8.352038450539112091e-03,-7.697061449289321899e-02,-7.331576198339462280e-02,4.073349758982658386e-02,-1.739346534013748169e-01,1.541713923215866089e-01,-6.787677854299545288e-02,-1.036524027585983276e-02,-7.388421893119812012e-02,-1.156551241874694824e-01,2.477829717099666595e-02,-1.883020624518394470e-02,-9.068752080202102661e-02,-7.420814596116542816e-03,-1.277407109737396240e-01,-3.404095768928527832e-02,2.060010284185409546e-02,-1.105632409453392029e-01,-1.085479557514190674e-01,-1.199611425399780273e-01,8.778591454029083252e-02,1.185169741511344910e-01,-1.641498953104019165e-01,-5.688899382948875427e-02,1.558700799942016602e-01,-1.354779452085494995e-01,9.112794883549213409e-03
2.090519070625305176e-01,1.943303793668746948e-01,-4.769682139158248901e-02,-6.294263154268264771e-02,8.475392311811447144e-02,-7.198821753263473511e-02,9.328027814626693726e-02,4.581005498766899109e-02,-4.406547173857688904e-02,-7.046745717525482178e-02,7.809463888406753540e-03,9.010359644889831543e-02,-3.233864845242351294e-04,1.347603052854537964e-01,-6.067895330488681793e-03,2.154094725847244263e-01,1.184833198785781860e-01,-1.384512037038803101e-01,1.579675078392028809e-01,-1.622131913900375366e-01,8.693260699510574341e-02,-1.221266612410545349e-01,-1.020317245274782181e-02,1.190191693603992462e-02,-2.528015151619911194e-02,-1.937498003244400024e-01,1.771680414676666260e-01,-2.167463451623916626e-01,2.249720990657806396e-01,-7.458981126546859741e-02,-2.830128185451030731e-02,1.813985407352447510e-01,-2.217447757720947266e-01,-2.485745772719383240e-02,-1.984843164682388306e-01,2.262187600135803223e-01,-5.917600821703672409e-03,2.179804444313049316e-01,-1.750341653823852539e-01,-3.425866831094026566e-03,-7.389879226684570312e-02,1.071846019476652145e-02,-8.404836989939212799e-03,1.415169537067413330e-01,1.413036137819290161e-01,5.487639456987380981e-02,-9.975072741508483887e-02,7.527577877044677734e-02,1.020402610301971436e-01,-5.301711708307266235e-02,7.266761362552642822e-02,-1.063983365893363953e-01,-1.195663437247276306e-01,7.251805067062377930e-02,-1.084578558802604675e-01,-1.861523254774510860e-03,-1.326276957988739014e-01,1.448265314102172852e-01,-1.637835949659347534e-01,-1.467072032392024994e-02,-4.088128358125686646e-02,-1.475546658039093018e-01,-1.352314502000808716e-01,-1.164513453841209412e-01,-5.260833725333213806e-02,1.130328699946403503e-01,1.372345685958862305e-01,1.755325347185134888e-01,9.414685517549514771e-02,-8.246400207281112671e-02,1.687963157892227173e-01,7.410054653882980347e-02,1.090840324759483337e-01,-3.972015902400016785e-02,1.469976454973220825e-01,1.073163300752639771e-01,-3.201359137892723083e-02,-5.868868529796600342e-02,-4.089705646038055420e-02,-1.415127981454133987e-02,6.504728645086288452e-02,7.423681765794754028e-02,9.510658681392669678e-02,-2.817229367792606354e-02,1.452728062868118286e-01,-5.690212827175855637e-03,-5.667076632380485535e-02,1.237368062138557434e-01,3.371375426650047302e-02,2.524906955659389496e-02,-1.376177966594696045e-01,-1.574530005455017090e-01,-7.613962888717651367e-02,-7.616638392210006714e-02,-1.187096163630485535e-01,6.175767257809638977e-02,-2.004438489675521851e-01,-7.112795859575271606e-02,-3.060061484575271606e-02,6.439479067921638489e-03,-9.214911609888076782e-02,5.732402205467224121e-02,1.638637632131576538e-01,1.836002320051193237e-01,-5.061754211783409119e-02,-3.647918626666069031e-02,-1.416343599557876587e-01,4.865729808807373047e-02,1.002829745411872864e-01,-1.235433816909790039e-01,-7.809208333492279053e-02,-4.812125116586685181e-03,1.279608309268951416e-01,-1.203469336032867432e-01,-1.094071343541145325e-01,6.721024215221405029e-02,-1.430963352322578430e-02,-1.929067373275756836e-01,-1.226619705557823181e-01,-1.681574583053588867e-01,4.145225510001182556e-02,9.625027328729629517e-02,-7.645673304796218872e-02,1.555292308330535889e-01,-1.167774200439453125e-01,-1.541756391525268555e-01,-5.040841177105903625e-02,-5.773746222257614136e-02,1.415821164846420288e-02
4.741245880722999573e-03,1.355191618204116821e-01,-2.116207778453826904e-02,1.371347904205322266e-01,9.974344633519649506e-03,7.458401471376419067e-02,4.782311618328094482e-02,-9.444783441722393036e-03,7.143161445856094360e-02,-1.223163530230522156e-01,-6.454554945230484009e-02,9.399389475584030151e-02,8.971683681011199951e-02,-7.731251418590545654e-02,9.873447567224502563e-02,-2.179926186800003052e-01,-1.265957951545715332e-01,8.898800611495971680e-02,4.212823137640953064e-02,2.220165282487869263e-01,-3.031076677143573761e-02,5.260939896106719971e-02,2.812021784484386444e-02,-7.367595285177230835e-02,2.571797557175159454e-02,1.731283962726593018e-01,1.499800831079483032e-01,4.659600928425788879e-02,-2.454239316284656525e-02,-9.046451747417449951e-02,2.933803759515285492e-02,-1.933913379907608032e-01,-3.149748593568801880e-02,-9.598042070865631104e-02,-1.133608445525169373e-01,-7.221169769763946533e-02,1.252477020025253296e-01,7.248210161924362183e-02,6.388870626688003540e-02,1.454437524080276489e-01,-2.089021205902099609e-01,1.088639497756958008e-01,-1.986976563930511475e-01,1.466286331415176392e-01,-1.094890758395195007e-01,-1.454416811466217041e-01,8.521630614995956421e-02,1.219334676861763000e-01,-1.399659365415573120e-01,3.541351109743118286e-02,-1.487451642751693726e-01,1.654213070869445801e-01,-7.631570100784301758e-02,3.993846103549003601e-02,-1.518336683511734009e-01,8.928806334733963013e-02,3.794875368475914001e-02,-8.701435290277004242e-03,9.663964062929153442e-02,-7.957495003938674927e-02,-1.672728806734085083e-01,1.563411504030227661e-01,-1.103521957993507385e-01,1.086931079626083374e-01,1.452248916029930115e-02,7.388380169868469238e-02,5.627012997865676880e-02,-1.135358065366744995e-01,-7.282033562660217285e-02,9.412595629692077637e-02,1.800038516521453857e-01,1.739597469568252563e-01,-1.581434011459350586e-01,-1.498916558921337128e-02,1.589551866054534912e-01,-6.495898216962814331e-02,1.101852804422378540e-01,-1.391036510467529297e-01,-2.774477563798427582e-02,-7.134425919502973557e-03,-1.302859783172607422e-01,-6.607442349195480347e-02,-3.187109902501106262e-02,-1.315530538558959961e-01,7.612710446119308472e-02,-1.488384902477264404e-01,9.206075966358184814e-02,-5.719074979424476624e-02,1.571217179298400879e-02,9.207485616207122803e-02,-9.525018185377120972e-02,9.393468499183654785e-02,-6.352230161428451538e-02,-7.736321538686752319e-02,-3.803246840834617615e-02,9.340081363916397095e-02,-1.253147125244140625e-01,5.388459935784339905e-02,1.757176965475082397e-01,7.512704469263553619e-03,-7.582292705774307251e-02,4.473559092730283737e-03,-1.043497547507286072e-01,1.333364844322204590e-01,6.010853126645088196e-02,4.389139264822006226e-02,6.033507362008094788e-02,1.647254079580307007e-01,-2.184730023145675659e-02,-1.771552860736846924e-02,-4.942859709262847900e-02,-8.097878843545913696e-02,1.007240116596221924e-01,-5.398987978696823120e-02,-8.912762254476547241e-02,7.131841033697128296e-02,3.537024557590484619e-02,-1.797175966203212738e-02,1.795294582843780518e-01,8.097822964191436768e-02,-4.926636070013046265e-02,4.418228927534073591e-04,4.646413773298263550e-02,1.286188811063766479e-01,2.398804388940334320e-02,1.333996355533599854e-01,1.313221752643585205e-01,-3.816281259059906006e-02,3.602116554975509644e-02
1.141142100095748901e-01,1.913859993219375610e-01,-1.027170419692993164e-01,4.735379666090011597e-02,-4.934002459049224854e-02,-2.989870309829711914e-02,7.021045684814453125e-02,1.786466389894485474e-01,2.950865030288696289e-02,7.592389732599258423e-02,-5.494219809770584106e-02,-2.871152013540267944e-02,1.003124192357063293e-01,-1.584368646144866943e-01,1.654174774885177612e-01,2.315534502267837524e-01,6.180153414607048035e-02,1.716105192899703979e-01,-6.320201605558395386e-02,7.378279417753219604e-02,-1.442838758230209351e-01,6.827419996261596680e-02,-1.494365185499191284e-01,1.371079832315444946e-01,1.787378191947937012e-01,-1.280234605073928833e-01,-1.714902222156524658e-01,1.709562689065933228e-01,1.460486352443695068e-01,-8.378461003303527832e-02,-1.369597911834716797e-01,1.232301816344261169e-01,-5.306107923388481140e-02,7.128572463989257812e-02,2.140993177890777588e-01,-1.164161488413810730e-01,-3.264693170785903931e-02,5.355411395430564880e-02,-6.498388946056365967e-02,-2.727827802300453186e-02,-5.808833613991737366e-02,7.188226282596588135e-02,-4.447216540575027466e-02,1.146231889724731445e-01,-1.318085491657257080e-01,-2.121240794658660889e-01,-1.715509146451950073e-01,-7.118713110685348511e-02,-1.736541278660297394e-02,7.853740453720092773e-02,-2.215151116251945496e-02,1.130221858620643616e-01,-6.286136060953140259e-02,1.549276709556579590e-01,-7.304844260215759277e-02,9.574116021394729614e-02,6.409468501806259155e-02,-6.439547985792160034e-03,6.665813922882080078e-02,1.537949293851852417e-01,-6.435408443212509155e-02,2.431772463023662567e-02,1.241820901632308960e-01,4.347646236419677734e-02,-5.830341577529907227e-02,1.631283573806285858e-02,-3.696931153535842896e-02,1.770391017198562622e-01,-9.015804389491677284e-04,-5.688114091753959656e-02,-1.054547727108001709e-01,-1.027312204241752625e-01,-1.453560870140790939e-02,-1.698752343654632568e-01,-1.288379281759262085e-01,-1.725461632013320923e-01,1.654978692531585693e-01,-1.258408725261688232e-01,-5.905248597264289856e-02,1.569717936217784882e-02,5.416329577565193176e-02,1.049286946654319763e-01,1.905758865177631378e-02,-3.437714651226997375e-02,-1.428553909063339233e-01,9.031254053115844727e-02,1.081024184823036194e-01,-1.484091728925704956e-01,-1.085329428315162659e-01,5.801740288734436035e-02,1.256273537874221802e-01,-1.272752434015274048e-01,-1.870362758636474609e-01,-1.350677609443664551e-01,1.480215638875961304e-01,-6.218187138438224792e-02,1.199417263269424438e-01,-1.351626217365264893e-01,1.164367049932479858e-01,1.306518316268920898e-01,-5.173811689019203186e-02,-4.801726713776588440e-02,4.663495346903800964e-02,-6.900693476200103760e-02,-9.465020895004272461e-02,-9.210675954818725586e-02,1.646355092525482178e-01,-2.688911743462085724e-02,-5.782416090369224548e-02,8.032558485865592957e-03,2.008276805281639099e-02,1.239171773195266724e-01,-1.711316555738449097e-01,1.750073879957199097e-01,-7.193235307931900024e-02,-8.422847837209701538e-02,-3.613970801234245300e-02,-1.282620280981063843e-01,-1.511045992374420166e-01,3.287154808640480042e-02,-1.439066678285598755e-01,-1.487984508275985718e-01,1.621268242597579956e-01,1.249907165765762329e-01,3.708519786596298218e-02,-1.576133072376251221e-01,5.423722416162490845e-02,-7.210189849138259888e-02,-3.138647647574543953e-03
1.173814684152603149e-01,8.498211950063705444e-02,1.011563986539840698e-01,-4.490382969379425049e-03,-1.829432100057601929e-01,1.662672162055969238e-01,1.133939102292060852e-01,-2.529949508607387543e-02,1.177297681570053101e-01,3.695702552795410156e-02,1.184450611472129822e-01,-1.085366010665893555e-01,-1.368990093469619751e-01,-1.922885030508041382e-01,6.706519983708858490e-03,1.877713501453399658e-01,1.139008328318595886e-01,2.483986318111419678e-02,-3.100009262561798096e-02,-1.488847136497497559e-01,-8.166287094354629517e-02,-7.843652367591857910e-02,1.201907545328140259e-01,-6.686228513717651367e-02,1.095336601138114929e-01,1.435082405805587769e-01,8.665403723716735840e-02,-2.094075381755828857e-01,-9.501327574253082275e-02,1.368501782417297363e-01,3.467638045549392700e-02,-8.448752015829086304e-02,8.352895081043243408e-02,-5.318220332264900208e-02,-1.055094152688980103e-01,-2.228294871747493744e-02,-2.229129076004028320e-01,1.988559216260910034e-01,9.909532964229583740e-02,7.280102372169494629e-02,-7.044106721878051758e-02,-1.826090067625045776e-01,1.807977855205535889e-01,-2.104014605283737183e-01,-5.160693079233169556e-02,-1.303283870220184326e-01,-1.725816428661346436e-01,-1.203641295433044434e-01,-1.113125011324882507e-01,-5.119828507304191589e-02,-1.804905682802200317e-01,-1.586301438510417938e-02,-1.159112434834241867e-02,-1.893583089113235474e-01,1.559208631515502930e-01,-8.047664910554885864e-02,-1.195747107267379761e-01,-5.696744099259376526e-02,1.017077267169952393e-01,9.644956141710281372e-02,-1.085351780056953430e-01,1.505416035652160645e-01,7.870870828628540039e-02,1.361407041549682617e-01,1.013636495918035507e-02,4.856011271476745605e-02,-3.394556045532226562e-02,1.134860515594482422e-01,-5.037701688706874847e-03,-5.473370105028152466e-02,-1.507453620433807373e-01,-1.714325249195098877e-01,7.509414106607437134e-03,-1.556181311607360840e-01,9.068942070007324219e-02,-6.397287547588348389e-02,2.546136453747749329e-02,-8.150821924209594727e-02,1.219576410949230194e-02,-1.019481346011161804e-01,-6.859799474477767944e-02,1.324909925460815430e-01,6.539890915155410767e-02,6.094487383961677551e-02,1.426198184490203857e-01,3.108785673975944519e-02,1.257963031530380249e-01,-5.334777384996414185e-02,-6.093145534396171570e-02,3.102182783186435699e-02,9.836992248892784119e-03,6.536156684160232544e-02,-7.772289216518402100e-02,-7.268352061510086060e-02,4.316781088709831238e-02,7.026968151330947876e-02,-1.404292732477188110e-01,9.508205950260162354e-02,8.892976492643356323e-02,6.575943529605865479e-02,-8.778283745050430298e-02,1.503564119338989258e-01,5.211041867733001709e-02,1.436236053705215454e-01,-1.444741501472890377e-03,1.605157852172851562e-01,1.339477002620697021e-01,-1.637647449970245361e-01,6.195449456572532654e-02,-1.624156087636947632e-01,-1.459034276194870472e-03,1.224786862730979919e-01,-6.099029630422592163e-02,-1.658136695623397827e-01,-1.281353682279586792e-01,1.664389818906784058e-01,9.359584748744964600e-02,-3.233734518289566040e-02,-1.163552626967430115e-01,-1.347246915102005005e-01,-9.714041650295257568e-02,1.142792031168937683e-02,5.328210815787315369e-02,-1.038282886147499084e-01,1.091608107089996338e-01,8.388820290565490723e-02,-1.055789813399314880e-01,-1.815052703022956848e-02,7.817056961357593536e-03
-1.186055317521095276e-01,-1.817818135023117065e-01,-7.836527377367019653e-02,4.654038324952125549e-02,-1.215034499764442444e-01,-7.363076508045196533e-02,-1.862628459930419922e-01,5.630882084369659424e-02,-4.281378164887428284e-02,2.242748737335205078e-01,-1.881806552410125732e-01,-1.142679378390312195e-01,-2.176987007260322571e-02,1.730382591485977173e-01,-9.804491698741912842e-02,-3.425527736544609070e-02,-9.369920939207077026e-02,-9.822538495063781738e-02,2.218669056892395020e-01,1.165141835808753967e-01,7.331244647502899170e-02,4.102712497115135193e-02,2.258380949497222900e-01,-1.451947377063333988e-03,-9.971785545349121094e-02,6.478662043809890747e-02,8.398317545652389526e-02,1.456291675567626953e-01,-7.802705746144056320e-03,-1.269350796937942505e-01,-1.900943964719772339e-01,-5.207167938351631165e-02,-8.422500640153884888e-02,5.313821509480476379e-02,-1.991206109523773193e-01,-1.401147693395614624e-01,1.387753933668136597e-01,-1.341488398611545563e-02,-1.798886805772781372e-01,1.715873628854751587e-01,-2.205901741981506348e-01,6.136297062039375305e-02,4.300149902701377869e-02,-9.276223927736282349e-02,-8.882022649049758911e-02,6.231280416250228882e-02,-5.046038422733545303e-03,-1.074386537075042725e-01,1.228252947330474854e-01,-1.175517663359642029e-01,4.597985371947288513e-02,1.312945485115051270e-01,-9.055436402559280396e-02,-1.146396547555923462e-01,2.595241647213697433e-03,1.062527969479560852e-01,1.741064526140689850e-02,-3.556924406439065933e-03,-2.153698801994323730e-01,-3.686051070690155029e-02,-2.667701803147792816e-02,-8.956136554479598999e-02,1.353189349174499512e-01,1.698785871267318726e-01,-9.127990901470184326e-02,-9.315918385982513428e-02,-8.058525621891021729e-03,1.216443628072738647e-01,-5.073624849319458008e-02,1.166160255670547485e-01,2.816841565072536469e-02,-7.921221107244491577e-02,-1.801511049270629883e-01,-1.673981547355651855e-01,1.382023096084594727e-01,-8.879527449607849121e-02,6.759256869554519653e-02,-1.507300287485122681e-01,3.739697858691215515e-02,-9.968217462301254272e-02,6.770085543394088745e-02,1.241235136985778809e-01,4.901281744241714478e-02,-4.365770891308784485e-02,-9.065314382314682007e-02,-8.610415458679199219e-02,8.614791929721832275e-02,1.332960575819015503e-01,-9.979207068681716919e-02,-1.322486903518438339e-02,7.876647263765335083e-02,1.670147627592086792e-01,-1.190339252352714539e-01,1.343982201069593430e-02,1.176428049802780151e-01,2.407345362007617950e-02,-3.092959709465503693e-02,-3.870972245931625366e-02,6.189822033047676086e-02,-9.089210629463195801e-02,4.700475372374057770e-03,1.525512337684631348e-01,9.685456752777099609e-02,-6.975038349628448486e-02,-5.517676472663879395e-02,-6.653612107038497925e-02,1.034477427601814270e-01,3.999373316764831543e-02,-3.913413733243942261e-02,1.373690962791442871e-01,1.852848231792449951e-01,3.581819310784339905e-02,-7.984592765569686890e-02,1.080310866236686707e-01,4.635177180171012878e-02,-9.983685612678527832e-02,-8.801076561212539673e-02,-1.166098192334175110e-01,8.152666850946843624e-04,4.830918833613395691e-02,2.080910652875900269e-02,-1.547621842473745346e-02,5.248379334807395935e-02,-4.312909021973609924e-02,4.366422072052955627e-02,-8.506967872381210327e-02,1.361470017582178116e-02,2.751694992184638977e-02,1.963978633284568787e-02
-2.955364435911178589e-02,-1.124818027019500732e-01,-7.640433497726917267e-03,1.822026222944259644e-01,-1.145005319267511368e-02,-1.611652821302413940e-01,5.052113905549049377e-02,1.221512183547019958e-01,9.332998096942901611e-02,-9.068606421351432800e-03,-5.506765469908714294e-02,1.358733922243118286e-01,1.810647100210189819e-01,-5.456208437681198120e-02,1.562591046094894409e-01,-5.118709430098533630e-02,1.670492738485336304e-01,1.180666536092758179e-01,-8.150534331798553467e-02,-6.748113036155700684e-02,-2.202858030796051025e-02,1.639309972524642944e-01,2.189442217350006104e-01,4.583142697811126709e-02,-2.017726451158523560e-01,-1.172382086515426636e-01,1.646472662687301636e-01,7.804652303457260132e-02,6.253413110971450806e-02,7.633402198553085327e-02,-1.344248503446578979e-01,1.282642334699630737e-01,3.024847805500030518e-02,7.935364544391632080e-02,-2.275740168988704681e-02,5.063782632350921631e-02,2.037574350833892822e-01,6.197487562894821167e-02,1.123877614736557007e-02,1.880819946527481079e-01,-4.455754160881042480e-02,1.133143249899148941e-02,7.998268119990825653e-05,5.129714682698249817e-02,-4.625805094838142395e-02,4.972418025135993958e-02,-4.839007183909416199e-02,5.263217166066169739e-02,-3.899931535124778748e-02,-2.111027538776397705e-01,-1.105822175741195679e-01,1.217205300927162170e-01,-1.232340335845947266e-01,1.412605196237564087e-01,-1.040247976779937744e-01,3.937871009111404419e-02,-4.015668109059333801e-02,-1.207463592290878296e-01,8.487471938133239746e-02,-1.685002893209457397e-01,-1.341619938611984253e-01,-1.115023996680974960e-02,-3.925567492842674255e-03,-3.541332855820655823e-02,-3.424905613064765930e-02,-1.074276119470596313e-01,5.510735884308815002e-02,1.507175713777542114e-02,1.766741871833801270e-01,1.768153309822082520e-01,-1.084802672266960144e-01,-1.576988771557807922e-02,-1.216466948390007019e-01,-2.318554930388927460e-02,6.259771995246410370e-03,-1.141237169504165649e-01,-1.157481521368026733e-01,-1.351799815893173218e-01,-1.581435799598693848e-01,9.946578741073608398e-02,1.717081964015960693e-01,-6.687679793685674667e-03,4.851793870329856873e-02,-3.183938562870025635e-02,6.920337677001953125e-02,9.909838438034057617e-02,1.339209973812103271e-01,4.285727813839912415e-02,-9.886913001537322998e-02,6.663119047880172729e-02,-1.002187877893447876e-01,1.453179419040679932e-01,-2.025605589151382446e-01,1.677574515342712402e-01,1.082686707377433777e-01,1.722400337457656860e-01,1.256883144378662109e-02,-1.800580620765686035e-01,1.794015318155288696e-01,-8.003053069114685059e-02,-1.103340461850166321e-01,2.166070789098739624e-02,1.128535866737365723e-01,1.350302249193191528e-01,-1.523867063224315643e-02,1.091612428426742554e-01,5.063877254724502563e-02,-7.604651898145675659e-02,-1.385487914085388184e-01,1.341982483863830566e-01,1.113899275660514832e-01,1.670420467853546143e-01,-1.326891481876373291e-01,-9.415216743946075439e-02,5.809248238801956177e-02,-2.864325046539306641e-02,-1.649293452501296997e-01,-1.602942794561386108e-01,5.892010405659675598e-02,-8.398137986660003662e-03,-1.498303189873695374e-02,1.748188436031341553e-01,-9.815412014722824097e-02,1.466848887503147125e-03,-1.136812418699264526e-01,-4.793368652462959290e-02,-1.326615065336227417e-01,-5.978145822882652283e-02,1.773099415004253387e-02
1.045576259493827820e-01,9.112898260354995728e-02,-1.646956354379653931e-01,4.234473034739494324e-02,6.698607653379440308e-02,-5.522385984659194946e-02,4.700655862689018250e-02,-9.074283391237258911e-02,2.131404131650924683e-01,9.219872206449508667e-02,1.331398785114288330e-01,1.124968007206916809e-01,-1.120519042015075684e-01,9.174600243568420410e-02,-1.154143512248992920e-01,-1.623594760894775391e-01,1.122888997197151184e-01,-7.275625318288803101e-02,-1.592460833489894867e-02,2.498727887868881226e-01,-1.321256756782531738e-01,-6.891807168722152710e-02,1.930362544953823090e-03,-1.556539982557296753e-01,7.878563553094863892e-02,-6.826183944940567017e-02,1.988747715950012207e-01,1.300079673528671265e-01,5.403118953108787537e-02,1.135941669344902039e-01,-1.331287175416946411e-01,-7.966620847582817078e-03,7.884830981492996216e-02,1.551510542631149292e-01,-2.181386947631835938e-01,1.450162380933761597e-02,-1.108355224132537842e-01,-8.751915767788887024e-03,5.643090233206748962e-02,2.410233207046985626e-02,-8.171242475509643555e-02,-9.360032528638839722e-02,-5.973058938980102539e-02,5.998057499527931213e-02,-1.616427451372146606e-01,3.952401876449584961e-02,1.420432180166244507e-01,-1.160758808255195618e-01,1.596730947494506836e-01,-5.821867287158966064e-02,3.109326586127281189e-02,1.433869153261184692e-01,9.591865539550781250e-02,-1.520903706550598145e-01,6.662505865097045898e-02,1.950830668210983276e-01,1.684666424989700317e-02,-3.089902689680457115e-03,-1.301966607570648193e-01,4.080597311258316040e-03,1.289856433868408203e-01,-1.767427474260330200e-01,8.028233051300048828e-02,-2.342585474252700806e-02,4.953465983271598816e-02,-4.080839455127716064e-02,6.381931900978088379e-02,4.782100394368171692e-02,6.204092875123023987e-02,6.472698599100112915e-02,-1.693008234724402428e-04,7.447770237922668457e-02,1.071788817644119263e-01,-7.189776003360748291e-02,9.259751439094543457e-02,-4.713682085275650024e-02,-1.577774807810783386e-02,-1.431884914636611938e-01,9.200429171323776245e-02,7.710622251033782959e-02,-6.751295924186706543e-02,1.395215094089508057e-01,-7.691076397895812988e-02,-1.653822213411331177e-01,-4.979499056935310364e-02,-4.532184079289436340e-02,1.812009066343307495e-01,3.498869761824607849e-02,1.048266738653182983e-01,-1.470442954450845718e-02,4.748979955911636353e-02,-1.551448460668325424e-02,-1.326089948415756226e-01,-1.646428555250167847e-01,-8.239331096410751343e-02,8.512333035469055176e-02,-9.707287885248661041e-03,1.431279480457305908e-01,8.621781016699969769e-04,3.043827228248119354e-02,-3.062338195741176605e-02,-1.367976367473602295e-01,-1.508546471595764160e-01,4.806452989578247070e-02,1.375867575407028198e-01,-1.094693690538406372e-02,-1.108011081814765930e-01,1.129034385085105896e-01,1.703083515167236328e-01,1.528569012880325317e-01,-4.580613970756530762e-02,5.114672705531120300e-02,-1.528613865375518799e-01,1.318682581186294556e-01,-1.213446930050849915e-01,-1.085226461291313171e-01,1.209052205085754395e-01,-2.000539936125278473e-02,-1.147006079554557800e-01,7.928495109081268311e-02,1.345262974500656128e-01,1.854906082153320312e-01,1.708652675151824951e-01,7.618369162082672119e-02,4.322195425629615784e-02,-8.770330809056758881e-03,-1.856122538447380066e-02,4.156941547989845276e-02,1.307969260960817337e-02
1.399677246809005737e-01,1.209141686558723450e-01,1.043260470032691956e-01,-1.159484777599573135e-02,1.265553534030914307e-01,9.004845470190048218e-02,-5.572448670864105225e-02,8.873118460178375244e-02,-3.610980883240699768e-02,9.783883392810821533e-02,-7.194964587688446045e-02,1.812229305505752563e-01,2.224399745464324951e-01,-1.164140328764915466e-01,-9.683923423290252686e-02,-1.511743962764739990e-01,5.005416460335254669e-04,-2.953672781586647034e-02,-5.712352693080902100e-02,1.239715665578842163e-01,-8.569482713937759399e-02,-1.163645312190055847e-01,1.586911641061306000e-02,1.379277836531400681e-02,-6.811465322971343994e-02,-1.067389920353889465e-01,2.363831251859664917e-01,1.244892776012420654e-01,1.398261040449142456e-01,-1.925870776176452637e-02,-2.205614894628524780e-01,1.751790344715118408e-01,-7.420210540294647217e-02,-1.760823279619216919e-01,-4.257847741246223450e-02,-4.952586814761161804e-02,-2.283163927495479584e-02,1.434386223554611206e-01,1.311063170433044434e-01,5.835571512579917908e-02,-8.576072752475738525e-02,8.996407687664031982e-02,-1.442969739437103271e-01,1.153152510523796082e-01,-1.125548034906387329e-01,9.592697769403457642e-02,-5.442874506115913391e-02,9.312526881694793701e-02,-1.552408561110496521e-02,-1.732643991708755493e-01,2.191513180732727051e-01,-6.253463029861450195e-02,-6.793166697025299072e-02,1.077044606208801270e-01,1.302050948143005371e-01,7.200708240270614624e-02,2.799508348107337952e-02,-1.268265843391418457e-01,-2.244198471307754517e-01,1.352997124195098877e-01,-8.850638568401336670e-02,-6.578935310244560242e-03,2.029397338628768921e-02,1.294803917407989502e-01,1.415604352951049805e-01,-1.183194965124130249e-01,-1.845488697290420532e-02,-1.263040304183959961e-01,6.500269286334514618e-03,1.744347214698791504e-01,1.144755035638809204e-01,-5.238248780369758606e-02,2.783159725368022919e-02,-5.988457053899765015e-02,1.543194204568862915e-01,-6.234534457325935364e-02,-1.302719395607709885e-02,1.294806301593780518e-01,1.586783677339553833e-01,-1.212687138468027115e-02,9.600188583135604858e-02,-1.344999074935913086e-01,1.785951703786849976e-01,-3.370057418942451477e-02,-3.565222024917602539e-02,-1.012669801712036133e-01,1.318893395364284515e-02,-1.199374124407768250e-01,-7.914663851261138916e-02,1.098045110702514648e-01,1.519789099693298340e-01,-6.295312941074371338e-02,-1.539593487977981567e-01,-2.893628925085067749e-02,-1.110578328371047974e-01,1.668441593647003174e-01,-1.445438265800476074e-01,-4.315947741270065308e-02,-1.596994102001190186e-01,8.865630626678466797e-02,-1.384860277175903320e-01,-1.021903753280639648e-01,-4.546388238668441772e-02,-2.778050675988197327e-02,-7.998960092663764954e-03,5.465610325336456299e-02,2.231324091553688049e-02,-3.971844166517257690e-02,7.528710365295410156e-02,-1.598364561796188354e-01,8.469823747873306274e-02,7.240344583988189697e-02,-1.625616997480392456e-01,-9.616014361381530762e-02,-5.452863499522209167e-02,4.324319772422313690e-03,-1.041308976709842682e-02,1.279113888740539551e-01,-1.440356522798538208e-01,-8.191420137882232666e-02,2.684607869014143944e-03,-9.311945736408233643e-02,2.504389919340610504e-02,-9.495146805420517921e-04,-1.096132993698120117e-01,8.831043541431427002e-02,5.469550937414169312e-02,-1.449421346187591553e-01,7.726911921054124832e-03
-1.885185688734054565e-01,4.484433308243751526e-02,1.480132620781660080e-02,-3.859080746769905090e-02,-8.918710798025131226e-02,1.050845682621002197e-01,4.842275753617286682e-02,5.023758858442306519e-02,5.136635154485702515e-02,-4.012497887015342712e-02,7.088400423526763916e-02,1.930578798055648804e-01,-8.419314026832580566e-02,9.921826422214508057e-02,-9.351783990859985352e-02,-1.809206902980804443e-01,8.539438992738723755e-02,-1.171667054295539856e-01,1.776041239500045776e-01,-4.462633281946182251e-02,-9.729871898889541626e-02,3.090075030922889709e-02,1.338007003068923950e-01,-1.232609823346138000e-01,-3.206926956772804260e-02,-4.551001265645027161e-02,1.046369075775146484e-01,-1.476629972457885742e-01,-2.468730090185999870e-04,-2.466317266225814819e-02,6.517449766397476196e-02,1.440417766571044922e-01,1.060750260949134827e-01,5.767887085676193237e-02,-1.031000837683677673e-01,1.631969213485717773e-01,4.973256587982177734e-02,-1.246614456176757812e-01,-1.981062591075897217e-01,2.006483972072601318e-01,6.632521748542785645e-02,2.154691368341445923e-01,-9.848478436470031738e-02,6.335852295160293579e-02,-1.004497408866882324e-01,1.286509037017822266e-01,-1.673953682184219360e-01,8.868166804313659668e-02,1.964827328920364380e-01,-1.222114041447639465e-01,1.146786063909530640e-01,2.044785320758819580e-01,-1.759348511695861816e-01,1.166399195790290833e-01,1.784297972917556763e-01,1.312013119459152222e-01,2.158254943788051605e-02,-2.041462659835815430e-01,9.056437015533447266e-02,-9.958893805742263794e-02,-2.142088711261749268e-01,8.536957949399948120e-02,7.823581993579864502e-02,1.757269501686096191e-01,1.076335459947586060e-01,-6.171809136867523193e-02,-3.379992395639419556e-02,-1.368527263402938843e-01,-1.015395149588584900e-01,-5.366640537977218628e-02,-9.937423281371593475e-03,2.834224328398704529e-02,1.739488840103149414e-01,1.575563400983810425e-01,-1.100014820694923401e-01,-1.740802228450775146e-01,1.703767031431198120e-01,-1.136651728302240372e-03,1.012460235506296158e-02,7.362425327301025391e-02,2.604088932275772095e-02,-8.084143698215484619e-02,-1.311389356851577759e-01,1.141618415713310242e-01,-1.591117084026336670e-01,-1.561140567064285278e-01,-3.529579937458038330e-02,-1.056940630078315735e-01,1.348069608211517334e-01,-1.287326961755752563e-01,-2.076044445857405663e-03,8.714485168457031250e-02,-6.490699201822280884e-02,1.380685418844223022e-01,-1.115995272994041443e-01,6.921911239624023438e-02,-6.431238353252410889e-02,1.335901618003845215e-01,-2.359267883002758026e-02,3.020527772605419159e-02,4.807717353105545044e-02,1.304782181978225708e-01,-8.515972644090652466e-03,-1.227636784315109253e-01,-9.778711944818496704e-02,-3.283276036381721497e-02,7.234780490398406982e-02,1.327860653400421143e-01,1.444667875766754150e-01,-5.988012999296188354e-02,-7.099673897027969360e-02,6.570381671190261841e-02,4.734260216355323792e-02,1.730861328542232513e-02,-1.844445476308465004e-03,-1.150376424193382263e-01,-1.586723625659942627e-01,-1.424110978841781616e-01,1.703714132308959961e-01,-1.404210031032562256e-01,-1.059767883270978928e-02,1.429077237844467163e-01,-1.159311681985855103e-01,1.278682202100753784e-01,8.535169064998626709e-02,1.281860470771789551e-01,-8.098719269037246704e-02,-1.779090315103530884e-01,1.426815986633300781e-02
-1.257322728633880615e-01,1.578116789460182190e-02,3.765170928090810776e-03,8.400799334049224854e-02,-9.314479678869247437e-02,8.148616552352905273e-02,-9.555682539939880371e-02,1.548473984003067017e-01,1.408586055040359497e-01,-6.994275376200675964e-03,5.886855348944664001e-02,3.674592077732086182e-02,1.159389168024063110e-01,-1.346914321184158325e-01,-1.007777452468872070e-02,-4.138264060020446777e-02,-1.835561692714691162e-01,-5.217395350337028503e-02,-1.754897534847259521e-01,-1.197059080004692078e-01,1.720624975860118866e-02,-1.301070302724838257e-01,1.163751780986785889e-01,1.411386132240295410e-01,-1.074491813778877258e-01,3.568030521273612976e-02,1.879816525615751743e-03,-6.081607192754745483e-02,-1.343823522329330444e-01,1.495891213417053223e-01,1.258509159088134766e-01,1.390523761510848999e-01,9.613431245088577271e-02,-3.234688937664031982e-02,1.732923239469528198e-01,4.275051504373550415e-02,-2.444077841937541962e-02,2.766158618032932281e-02,1.668554395437240601e-01,7.448463886976242065e-02,-4.150239285081624985e-03,1.233615353703498840e-01,-2.382525615394115448e-02,-1.756684109568595886e-02,1.647457480430603027e-01,1.173115298151969910e-01,8.347011357545852661e-02,1.470389366149902344e-01,5.637185275554656982e-02,1.846047341823577881e-01,7.230942696332931519e-02,-6.686804443597793579e-02,-1.120862737298011780e-02,-1.481622904539108276e-01,-1.627141982316970825e-01,-4.835498705506324768e-02,1.662556976079940796e-01,4.406549409031867981e-02,-1.390126943588256836e-01,1.292277276515960693e-01,-4.432508349418640137e-02,-5.377017706632614136e-02,-1.268498599529266357e-01,4.159793257713317871e-02,8.281231671571731567e-02,-1.229309216141700745e-01,-1.629367321729660034e-01,-3.995451610535383224e-03,1.431039720773696899e-01,1.513869911432266235e-01,-1.557089984416961670e-01,2.326344512403011322e-02,4.804256930947303772e-02,4.778266698122024536e-02,-2.110560424625873566e-02,7.159414142370223999e-02,-1.173861995339393616e-01,1.661443114280700684e-01,1.494046533480286598e-03,-6.302622705698013306e-02,1.346907168626785278e-01,-1.373120993375778198e-01,1.175839081406593323e-02,1.084365546703338623e-01,1.119104027748107910e-01,2.197662554681301117e-02,5.686747655272483826e-02,2.032056637108325958e-02,1.354360673576593399e-02,-1.642568036913871765e-02,-1.646081209182739258e-01,1.128551810979843140e-01,3.290242701768875122e-02,-1.608581840991973877e-01,1.221538484096527100e-01,-2.446754276752471924e-02,-6.608956307172775269e-02,-1.220734268426895142e-01,-9.558683633804321289e-02,-4.682043072534725070e-05,-1.342009752988815308e-01,1.540749669075012207e-01,1.810200512409210205e-01,-4.516907408833503723e-02,1.466078460216522217e-01,-9.254204481840133667e-02,3.432803601026535034e-02,-1.477458775043487549e-01,1.361975371837615967e-01,-1.337118148803710938e-01,-1.108091846108436584e-01,5.111706256866455078e-02,1.776529401540756226e-01,-4.495991766452789307e-02,4.584453254938125610e-02,5.299980565905570984e-02,-3.537179902195930481e-02,1.843094229698181152e-01,1.500008255243301392e-01,8.804605156183242798e-02,1.391029953956604004e-01,-4.829036444425582886e-02,-1.649237237870693207e-02,-4.082952067255973816e-02,-7.770706433802843094e-03,-9.554293751716613770e-02,-1.088668182492256165e-01,1.756795346736907959e-01,-1.033369544893503189e-02
-1.300060749053955078e-01,-5.597095936536788940e-02,1.652808859944343567e-02,4.843615368008613586e-02,-6.833278387784957886e-02,1.306078135967254639e-01,-1.673544943332672119e-01,-1.410724073648452759e-01,1.555002331733703613e-01,-4.878680780529975891e-02,-1.237216889858245850e-01,-5.210731178522109985e-02,4.358957707881927490e-02,-9.653706103563308716e-02,-1.574110835790634155e-01,-1.697485893964767456e-01,-3.588617593050003052e-02,1.282338649034500122e-01,-1.826922446489334106e-01,-1.528235822916030884e-01,3.180312737822532654e-02,-1.807236969470977783e-01,-1.433650404214859009e-01,1.853156089782714844e-02,1.873741745948791504e-01,-3.671148419380187988e-02,2.033574879169464111e-02,1.591257452964782715e-01,-2.041236311197280884e-01,1.124730557203292847e-01,7.299468666315078735e-02,8.097033202648162842e-02,-6.565468758344650269e-02,1.524889618158340454e-01,-1.097429394721984863e-01,-2.157151252031326294e-01,1.214520633220672607e-01,-2.220268249511718750e-01,8.076072484254837036e-02,-3.579178452491760254e-02,8.238181471824645996e-02,-1.750621050596237183e-01,1.328756958246231079e-01,-2.917085401713848114e-02,-1.348703801631927490e-01,-1.228332519531250000e-01,-1.126589924097061157e-01,-1.387274172157049179e-02,1.267514377832412720e-01,1.353914141654968262e-01,6.645869463682174683e-02,-1.138600260019302368e-01,7.667688280344009399e-02,-2.862629480659961700e-03,-1.746543496847152710e-02,-7.860058546066284180e-02,-1.005970165133476257e-01,1.138106659054756165e-01,1.366614252328872681e-01,-5.923726037144660950e-02,-2.510744892060756683e-02,2.354041859507560730e-02,3.646662086248397827e-02,7.444455474615097046e-02,1.175922006368637085e-01,3.313678503036499023e-02,3.581289947032928467e-02,-6.756328046321868896e-02,1.232907995581626892e-01,1.714418679475784302e-01,1.192992776632308960e-01,2.147744745016098022e-01,1.297448277473449707e-01,1.301449239253997803e-01,9.123151749372482300e-02,1.340403109788894653e-01,4.843837395310401917e-02,-3.620158880949020386e-03,6.827858090400695801e-02,-2.205335535109043121e-03,1.674159318208694458e-01,1.748660206794738770e-01,-1.403137147426605225e-01,9.784238040447235107e-02,-1.601743996143341064e-01,-1.486539244651794434e-01,-1.206882521510124207e-01,-7.475788891315460205e-02,-2.277120947837829590e-02,-2.665462903678417206e-02,-6.688479334115982056e-02,8.213873952627182007e-02,-1.149930879473686218e-01,1.701876968145370483e-01,-1.436752229928970337e-01,1.551137119531631470e-01,1.015693098306655884e-01,1.213306337594985962e-01,-6.616651266813278198e-02,-4.563906043767929077e-02,1.370114684104919434e-01,-7.817533612251281738e-02,7.172064483165740967e-02,1.152041926980018616e-01,-2.061502039432525635e-01,-9.539749473333358765e-03,3.579461481422185898e-03,-7.326330989599227905e-02,-1.311750113964080811e-01,1.186009868979454041e-01,7.998748123645782471e-02,-2.231784164905548096e-02,5.034487321972846985e-02,2.186966985464096069e-01,-9.230359643697738647e-02,2.125075832009315491e-02,-1.151781752705574036e-01,4.546995833516120911e-02,5.716847255825996399e-02,-7.883335463702678680e-03,-6.567110866308212280e-02,6.942579895257949829e-02,1.810356825590133667e-01,1.695931702852249146e-01,-6.149667873978614807e-02,1.358067542314529419e-01,8.362373709678649902e-02,-1.265750676393508911e-01,1.546814199537038803e-02
1.569693386554718018e-01,1.110911965370178223e-01,-3.226859495043754578e-02,1.419550478458404541e-01,-9.976879507303237915e-02,-1.472822157666087151e-03,-1.335335616022348404e-02,-1.350288987159729004e-01,-8.285068720579147339e-02,9.026342630386352539e-02,1.143912822008132935e-01,8.167096227407455444e-02,6.062875967472791672e-03,-1.748494952917098999e-01,1.859530955553054810e-01,2.418411821126937866e-01,-1.082101762294769287e-01,-1.517629325389862061e-01,1.281313151121139526e-01,4.853158444166183472e-02,-1.303620822727680206e-02,-8.035659044981002808e-02,-1.735952645540237427e-01,9.087626636028289795e-02,1.007143408060073853e-01,-1.749902963638305664e-01,-1.837013661861419678e-01,-8.577141910791397095e-02,2.037529796361923218e-01,8.485087007284164429e-02,1.177608892321586609e-01,1.523151844739913940e-01,-2.113790214061737061e-01,9.853075444698333740e-02,-1.279101222753524780e-01,1.157715767621994019e-01,2.715907990932464600e-02,-8.083860576152801514e-02,-5.175520107150077820e-02,-1.200195997953414917e-01,8.396631479263305664e-02,-1.427102684974670410e-01,1.651024520397186279e-01,8.309390395879745483e-02,1.096283644437789917e-01,1.302200853824615479e-01,-1.126253306865692139e-01,9.292749315500259399e-02,-5.656972154974937439e-02,-1.492631137371063232e-01,-1.296542435884475708e-01,-1.826110929250717163e-01,1.095397472381591797e-01,-1.062986552715301514e-01,3.718767687678337097e-02,6.893122196197509766e-02,-2.111590653657913208e-01,6.111560761928558350e-02,-7.920927368104457855e-03,1.502252519130706787e-01,-1.365775316953659058e-01,-1.639123111963272095e-01,-4.116187244653701782e-02,1.740936487913131714e-01,5.338385328650474548e-02,-6.799461692571640015e-02,1.545826047658920288e-01,-1.058092862367630005e-01,5.462008062750101089e-03,-1.858406700193881989e-02,8.103081025183200836e-03,5.153043940663337708e-02,-1.674967408180236816e-01,9.021415561437606812e-02,8.130200207233428955e-02,-7.134875655174255371e-02,-5.532177910208702087e-02,-1.331206858158111572e-01,-5.798971746116876602e-03,-1.223249244503676891e-03,-3.758006170392036438e-02,-5.223684757947921753e-02,-1.051397025585174561e-01,-6.859233230352401733e-02,-1.181734949350357056e-01,-1.380949374288320541e-02,1.557975560426712036e-01,-4.811155050992965698e-02,1.490249782800674438e-01,1.590856537222862244e-02,-3.144920617341995239e-02,-7.079283148050308228e-02,-4.487901180982589722e-02,6.233168020844459534e-02,4.310562834143638611e-02,9.019455313682556152e-02,-6.160715967416763306e-02,5.502101406455039978e-02,2.209661528468132019e-02,-1.544155031442642212e-01,-6.475100293755531311e-03,4.642238840460777283e-02,1.544677317142486572e-01,1.320196986198425293e-01,1.306831557303667068e-02,1.191985532641410828e-01,-1.565722823143005371e-01,-2.435698546469211578e-02,9.782867133617401123e-02,-1.399044394493103027e-01,-6.573613733053207397e-02,1.080657988786697388e-01,-5.128832906484603882e-02,-6.533532589673995972e-02,-1.401476413011550903e-01,1.191766373813152313e-02,-5.793813616037368774e-02,6.435856223106384277e-02,8.694014698266983032e-02,-1.546396315097808838e-02,-9.930035471916198730e-02,5.528060719370841980e-03,-1.636809669435024261e-02,6.220384687185287476e-02,-6.790986657142639160e-02,1.556797623634338379e-01,1.289161737076938152e-03,1.282696872949600220e-01,7.606179919093847275e-03
-1.293143630027770996e-01,4.189077392220497131e-02,3.037665970623493195e-02,-3.977318853139877319e-02,-1.046840995550155640e-01,1.207236275076866150e-01,-9.235050529241561890e-02,-1.440683156251907349e-01,1.028560474514961243e-01,-4.737012204714119434e-04,-1.863699406385421753e-01,8.507675491273403168e-03,1.147622689604759216e-01,1.071583926677703857e-01,1.616045599803328514e-03,-4.794172197580337524e-02,1.307124197483062744e-01,4.282175749540328979e-02,3.482932597398757935e-02,1.889128088951110840e-01,5.011112615466117859e-02,1.554781347513198853e-01,1.155763939023017883e-01,-9.437391161918640137e-02,6.604606658220291138e-02,6.636314094066619873e-02,-1.164638996124267578e-02,6.182241439819335938e-02,1.171186193823814392e-01,1.887751519680023193e-01,7.479849457740783691e-02,1.475122421979904175e-01,4.405917227268218994e-02,1.057788208127021790e-01,3.297709859907627106e-03,1.458338350057601929e-01,1.378697007894515991e-01,-1.341348607093095779e-02,-1.004237756133079529e-01,9.116060286760330200e-02,-1.409910917282104492e-01,1.229491680860519409e-01,-1.341100782155990601e-01,3.425405547022819519e-02,1.840504258871078491e-02,-9.331142157316207886e-02,-7.654570043087005615e-02,1.407627314329147339e-01,1.713923215866088867e-01,7.127091288566589355e-02,1.303883790969848633e-01,4.649681039154529572e-03,-2.118219286203384399e-01,-6.326463073492050171e-02,-1.203533038496971130e-01,-1.125126555562019348e-01,4.510830715298652649e-02,-2.229864150285720825e-01,7.286579161882400513e-02,-3.596795350313186646e-02,1.096985414624214172e-01,-1.447097659111022949e-01,-5.787919089198112488e-02,-1.068554893136024475e-01,1.131094768643379211e-01,6.162270531058311462e-02,-3.552397340536117554e-02,-5.521760880947113037e-02,1.064833849668502808e-01,9.922190010547637939e-02,1.497532725334167480e-01,-4.177502170205116272e-02,4.221031442284584045e-02,6.821821630001068115e-02,3.810251830145716667e-03,-7.892968505620956421e-02,1.067012548446655273e-01,-9.424587711691856384e-03,2.387514524161815643e-02,-1.981346495449542999e-02,-3.286467166617512703e-03,-1.119391433894634247e-02,-2.163617871701717377e-02,1.055770963430404663e-01,-7.152791135013103485e-03,-6.349602341651916504e-02,7.942214608192443848e-02,-1.514071947894990444e-03,1.333784759044647217e-01,-1.368265300989151001e-01,1.611197143793106079e-01,1.398874074220657349e-01,-1.618660427629947662e-02,1.392000615596771240e-01,1.293364912271499634e-01,2.438588626682758331e-02,-1.011953875422477722e-01,1.594716906547546387e-01,7.980554550886154175e-02,2.322798222303390503e-02,7.499190419912338257e-02,1.108844876289367676e-01,9.422510862350463867e-03,-1.544444561004638672e-01,-1.946388930082321167e-02,6.372439861297607422e-02,7.206720113754272461e-02,-1.577495187520980835e-01,1.072311103343963623e-01,-3.589342907071113586e-02,-6.170720607042312622e-02,1.417959928512573242e-01,-4.992172122001647949e-02,-6.640759110450744629e-02,-5.755207687616348267e-02,1.820042356848716736e-02,-7.986599951982498169e-02,3.597477078437805176e-02,-4.328219592571258545e-02,9.917048364877700806e-02,6.085625290870666504e-02,8.954185992479324341e-02,-1.017432138323783875e-01,1.061447486281394958e-01,7.347996532917022705e-02,6.841093301773071289e-02,1.440014876425266266e-02,-4.765337705612182617e-02,1.702555082738399506e-02
-1.687887758016586304e-01,-1.736829876899719238e-01,1.215592399239540100e-01,1.952390372753143311e-01,-7.068108022212982178e-02,-1.756352186203002930e-02,7.639418542385101318e-02,-3.779125586152076721e-02,1.948024332523345947e-01,2.144747972488403320e-01,1.259541064500808716e-01,-1.214616559445858002e-02,-3.103999607264995575e-02,1.546957790851593018e-01,1.587744504213333130e-01,-1.389761567115783691e-01,2.123879641294479370e-02,3.527661028783768415e-04,5.099089443683624268e-02,1.027222350239753723e-01,-7.572009414434432983e-02,8.734571933746337891e-02,7.253160327672958374e-02,-1.028130501508712769e-01,-1.885978728532791138e-01,-1.139639094471931458e-01,1.326687186956405640e-01,1.027336791157722473e-01,1.725947409868240356e-01,-4.048250615596771240e-02,-2.012490779161453247e-01,-1.041114702820777893e-01,8.066951483488082886e-02,3.974075987935066223e-02,-2.426040731370449066e-02,-1.701991260051727295e-02,1.079877540469169617e-01,-1.107940599322319031e-01,1.008274033665657043e-01,1.009964048862457275e-01,-4.865908622741699219e-02,2.072724401950836182e-01,3.524497151374816895e-02,1.400604844093322754e-01,1.477033942937850952e-01,1.559713669121265411e-02,-1.608760952949523926e-01,1.287393718957901001e-01,4.582471027970314026e-02,-1.664415150880813599e-01,-2.958699478767812252e-04,1.100848317146301270e-01,-1.974444985389709473e-01,-8.246879279613494873e-02,7.521833479404449463e-02,-8.781914412975311279e-02,-3.201385214924812317e-02,-6.790093332529067993e-02,4.615402966737747192e-02,-1.395184248685836792e-01,-1.077727153897285461e-01,-2.271075248718261719e-01,9.737897664308547974e-02,1.232782527804374695e-01,-1.100514307618141174e-01,1.613220125436782837e-01,-7.887794822454452515e-02,1.474911868572235107e-01,1.388769317418336868e-02,4.030677676200866699e-02,1.074199229478836060e-01,3.656834736466407776e-02,-9.210979938507080078e-02,-4.358070716261863708e-02,-7.503797858953475952e-02,5.615020170807838440e-02,-1.619474291801452637e-01,3.368867933750152588e-02,3.988667204976081848e-02,-1.154082193970680237e-01,1.126754656434059143e-01,1.256484091281890869e-01,3.828126471489667892e-03,1.245418265461921692e-01,1.034037992358207703e-01,-6.781597435474395752e-02,-2.527452306821942329e-03,6.760991364717483521e-02,-1.301650106906890869e-01,-1.103168576955795288e-01,-1.077582836151123047e-01,-5.979366227984428406e-02,-1.317329704761505127e-01,4.038552194833755493e-02,9.227870404720306396e-02,3.076246753334999084e-02,8.442421257495880127e-02,-1.408813595771789551e-01,1.567168906331062317e-02,-4.376907274127006531e-02,-1.865790486335754395e-01,5.162783712148666382e-02,-1.931593120098114014e-01,-4.045490175485610962e-02,-5.798409879207611084e-02,4.175276309251785278e-02,3.697958961129188538e-02,-1.186571940779685974e-01,2.746316976845264435e-02,-1.289510428905487061e-01,1.251885592937469482e-01,-1.422742754220962524e-01,-9.416252374649047852e-02,9.253062307834625244e-02,-7.886543869972229004e-02,1.344484686851501465e-01,2.021554298698902130e-02,-1.794435642659664154e-02,-3.129469230771064758e-02,-6.941133737564086914e-02,1.911950409412384033e-01,1.143423765897750854e-01,-6.407511979341506958e-02,1.328732520341873169e-01,-1.682993918657302856e-01,3.738053515553474426e-02,8.218947798013687134e-02,-1.158826053142547607e-01,2.126996032893657684e-02
7.563109695911407471e-02,1.110211238265037537e-01,-1.885618455708026886e-02,6.944110244512557983e-02,5.227252840995788574e-02,-5.750647932291030884e-02,-1.715462058782577515e-01,4.593683406710624695e-02,1.780742313712835312e-03,-1.503405394032597542e-03,7.315731048583984375e-02,-5.264034494757652283e-02,-1.058020740747451782e-01,1.426918953657150269e-01,1.361442655324935913e-01,1.087686326354742050e-02,6.925959885120391846e-02,1.920947730541229248e-01,7.281140983104705811e-02,-2.056730538606643677e-02,6.909971684217453003e-02,-1.958126574754714966e-01,-9.717007726430892944e-02,6.827007234096527100e-02,-1.272410899400711060e-01,1.231424584984779358e-01,1.218241453170776367e-01,1.680278033018112183e-01,-6.868929415941238403e-02,-8.710177242755889893e-02,1.919666118919849396e-02,1.380114704370498657e-01,-8.425509184598922729e-02,1.742474138736724854e-01,2.320603094995021820e-02,-1.295693311840295792e-02,-9.682262688875198364e-02,1.346096675843000412e-02,6.185467913746833801e-02,-1.290227174758911133e-01,-5.567789077758789062e-02,-1.025188118219375610e-01,1.553492397069931030e-01,-6.945113092660903931e-02,-1.141448840498924255e-01,-5.778996646404266357e-02,5.924814939498901367e-02,-9.506498277187347412e-02,-1.670699715614318848e-01,-1.308068484067916870e-01,-1.043240129947662354e-01,-9.831459075212478638e-02,1.729783415794372559e-01,1.594825237989425659e-01,-1.938828676939010620e-01,1.062747538089752197e-01,6.473559141159057617e-02,5.238604173064231873e-02,1.571565419435501099e-01,-2.023121416568756104e-01,-1.034315004944801331e-01,4.321021214127540588e-02,-1.081889569759368896e-01,-1.509232074022293091e-01,5.990296974778175354e-02,1.513002216815948486e-01,-1.204148456454277039e-01,5.714645981788635254e-02,1.898642480373382568e-01,1.589287221431732178e-01,9.044891595840454102e-02,-6.104299426078796387e-02,4.066298529505729675e-02,-1.526822149753570557e-01,1.860819756984710693e-01,4.088466614484786987e-02,-1.584128290414810181e-01,-8.308123052120208740e-02,8.492265641689300537e-02,-3.940963000059127808e-02,-1.266689896583557129e-01,-9.014057368040084839e-02,-4.362606257200241089e-02,1.416281014680862427e-01,1.339434459805488586e-02,-4.544448480010032654e-02,4.253717884421348572e-02,-1.622067093849182129e-01,-1.925704479217529297e-01,1.460480839014053345e-01,2.774224802851676941e-02,1.231884732842445374e-01,7.296448945999145508e-02,-2.263745851814746857e-02,-4.495207220315933228e-02,4.896932840347290039e-02,5.885129049420356750e-02,-1.881485134363174438e-01,-4.341910034418106079e-02,9.777867235243320465e-03,-1.602744460105895996e-01,-1.038813125342130661e-02,1.075915805995464325e-02,1.364641040563583374e-01,-9.537366032600402832e-02,-1.430302206426858902e-02,8.806765079498291016e-02,-1.365945637226104736e-01,-1.822857856750488281e-01,-1.164679229259490967e-01,-1.281953006982803345e-01,-1.604039818048477173e-01,-1.564956009387969971e-01,4.356313496828079224e-03,1.345854531973600388e-02,-9.957939386367797852e-02,1.304411739110946655e-01,-1.704946160316467285e-01,1.142194718122482300e-01,4.536489024758338928e-02,2.105832099914550781e-02,-8.669599890708923340e-02,1.708528846502304077e-01,3.450635820627212524e-02,1.001326814293861389e-01,9.316545724868774414e-02,-1.343583911657333374e-01,-1.250943355262279510e-02,-2.998981624841690063e-03
7.633579522371292114e-02,3.839937597513198853e-02,-5.203573778271675110e-02,1.542816162109375000e-01,7.836076617240905762e-02,-1.032762750983238220e-01,4.067682474851608276e-02,-1.265346407890319824e-01,-1.126490682363510132e-01,-5.767041444778442383e-02,-9.019629657268524170e-02,-4.660286754369735718e-02,-6.366656720638275146e-02,1.706270873546600342e-02,1.312337517738342285e-01,-1.190525665879249573e-01,1.320990324020385742e-01,4.915153235197067261e-02,9.945143759250640869e-02,-6.700160354375839233e-02,1.023006886243820190e-01,1.238647028803825378e-01,1.479594856500625610e-01,3.029502555727958679e-02,-5.966871045529842377e-03,-1.031749024987220764e-01,1.095178648829460144e-01,6.810823827981948853e-02,-1.240851134061813354e-01,-1.388681083917617798e-01,1.519442498683929443e-01,-3.605182841420173645e-02,-3.576824069023132324e-02,-5.553283542394638062e-02,4.424654319882392883e-02,1.719358116388320923e-01,-5.508741736412048340e-02,1.312133371829986572e-01,6.950545310974121094e-02,-1.381317228078842163e-01,-3.548253700137138367e-02,6.060767173767089844e-02,5.304629728198051453e-02,-9.550612419843673706e-02,-1.590401083230972290e-01,3.227202966809272766e-02,1.299669891595840454e-01,4.763239063322544098e-03,1.116904243826866150e-01,-5.385741963982582092e-02,-1.423357278108596802e-01,-1.220304146409034729e-01,7.732202112674713135e-02,6.216578558087348938e-02,-1.627144366502761841e-01,6.146902590990066528e-02,1.666374355554580688e-01,5.629494041204452515e-02,8.759891986846923828e-02,1.466695219278335571e-01,8.778896927833557129e-02,9.688163548707962036e-02,-1.147350529208779335e-03,7.284867018461227417e-02,-6.446259468793869019e-02,-6.559143960475921631e-02,5.298586562275886536e-03,-8.303785324096679688e-02,7.819656282663345337e-02,-9.023952484130859375e-02,-7.173736393451690674e-02,-7.509715110063552856e-02,-1.661403179168701172e-01,7.570325583219528198e-02,-5.022007226943969727e-02,-1.448965817689895630e-01,3.351544588804244995e-02,-1.222124248743057251e-01,2.707457542419433594e-02,-7.531920820474624634e-02,-4.631621763110160828e-02,3.425979230087250471e-06,1.568226814270019531e-01,4.266851395368576050e-02,1.297298073768615723e-01,8.869025111198425293e-02,5.892102047801017761e-02,-1.635664701461791992e-01,1.669159382581710815e-01,1.107513383030891418e-01,-6.489709764719009399e-02,8.757673949003219604e-02,-3.206519410014152527e-02,-9.016541391611099243e-02,1.126695945858955383e-01,-1.057582795619964600e-01,-1.383899003267288208e-01,1.731915324926376343e-01,-2.225596830248832703e-02,1.420853883028030396e-01,-8.305259048938751221e-02,-6.124563515186309814e-02,-1.345073729753494263e-01,1.502219736576080322e-01,1.003694906830787659e-01,-9.349062293767929077e-02,2.691100537776947021e-02,1.511044502258300781e-01,-7.538391649723052979e-02,1.640736013650894165e-01,1.327278614044189453e-01,-1.167345419526100159e-01,-1.617532074451446533e-01,9.177759289741516113e-02,3.378397226333618164e-02,1.409660726785659790e-01,1.888775527477264404e-01,8.533064275979995728e-02,-6.573098152875900269e-02,-6.628947705030441284e-02,-3.514971956610679626e-02,1.113803591579198837e-05,-1.338907480239868164e-01,7.932161539793014526e-02,-1.401126384735107422e-01,-1.527922973036766052e-02,-7.994521409273147583e-02,-1.158535853028297424e-01,-1.015258952975273132e-02
